71 400
符娟 0.009585 -0.066988 0.160710 -0.042496 -0.031414 0.052213 -0.029571 -0.043874 0.024529 -0.085632 0.025078 -0.080258 0.097916 0.028304 -0.006091 -0.109788 -0.016750 0.010959 0.033290 0.005375 0.033239 0.079943 0.013543 -0.044626 0.016269 -0.016262 0.021160 0.078485 -0.072388 -0.046410 0.006133 -0.094917 -0.031799 -0.029559 0.072471 0.008887 -0.086867 0.071935 0.037850 0.009180 -0.018064 -0.090230 0.043394 -0.048019 0.024474 -0.060146 0.063665 -0.075788 0.100001 -0.099430 -0.104846 0.015625 -0.032388 0.046381 -0.078846 -0.002476 0.003217 0.031627 0.053952 0.080120 0.057886 -0.081880 -0.102594 0.000624 -0.113920 -0.055489 -0.151993 -0.110427 0.058897 -0.023995 -0.064906 0.093936 -0.158758 -0.048431 0.008127 0.027720 -0.064622 0.001708 -0.095352 -0.051995 -0.021933 0.083608 -0.050685 -0.003549 -0.071255 -0.014792 0.135572 0.051356 0.057384 -0.041011 -0.025179 -0.070373 -0.050084 -0.039180 -0.084947 0.107029 0.052657 0.050957 0.077387 -0.082680 0.036312 0.050318 0.006570 -0.079901 0.120991 -0.141928 0.069859 -0.025327 -0.086224 0.003266 -0.002944 -0.075088 0.034482 0.003585 -0.070477 0.058118 -0.028147 0.013633 0.062171 -0.037388 0.123315 -0.022407 0.059547 -0.034995 -0.122554 -0.039395 0.074664 -0.112952 -0.022562 -0.011304 -0.067229 -0.002130 -0.014838 -0.082532 0.137163 -0.026871 0.033408 -0.011541 -0.048946 0.110934 0.089538 0.090094 -0.022136 0.015365 -0.016927 0.020427 -0.072851 0.095797 -0.029370 0.077078 -0.072639 -0.057735 -0.095584 -0.007840 -0.059313 0.104904 -0.040519 -0.077003 0.108705 -0.054987 -0.059730 0.002722 -0.077393 0.019169 0.039612 -0.034108 -0.010790 -0.164809 0.018515 0.019128 0.037802 -0.013772 0.010407 0.006362 0.149699 -0.004760 -0.039070 0.057473 -0.031107 -0.017479 0.123529 -0.022218 -0.009988 0.067237 0.019910 -0.130663 -0.061284 -0.065826 0.027968 -0.045535 -0.062813 -0.093015 0.044063 -0.021245 -0.047542 -0.052886 -0.015220 -0.034505 -0.075447 -0.105138 -0.101288 0.032794 0.066969 0.022463 0.025738 0.025235 0.120354 0.021868 -0.079489 -0.052529 -0.094475 0.015073 0.052927 -0.068405 -0.037717 0.063183 -0.115881 -0.036514 0.068395 -0.026896 -0.027819 -0.034850 -0.042078 -0.014899 -0.084242 0.082096 0.011640 0.028206 0.011052 0.079435 0.006926 -0.041523 0.016264 0.034470 -0.060072 -0.003670 -0.013557 0.024685 0.025990 0.036713 -0.034181 -0.004982 0.092338 -0.032433 0.013330 0.099372 -0.119147 -0.056263 0.038934 -0.053784 -0.077625 -0.055375 0.071835 -0.037756 -0.081772 -0.010882 -0.027973 -0.030989 -0.057575 0.003651 -0.015879 0.024898 -0.007323 -0.050025 -0.012328 0.096601 -0.036204 0.046100 -0.019420 -0.115078 -0.019813 -0.074675 0.045372 0.045675 -0.035397 0.077757 0.010265 0.018182 0.081838 0.103866 0.047193 0.086923 0.003257 -0.040101 -0.000973 0.152475 -0.003319 0.093655 -0.016005 0.056041 -0.014270 0.036754 -0.033260 0.065613 -0.011332 -0.097122 0.086021 0.071782 0.080788 -0.069872 -0.045020 0.098817 0.075181 0.005839 -0.020824 -0.083787 -0.039910 0.027046 0.026245 -0.007230 -0.019877 -0.002176 -0.145326 0.066188 0.031481 0.031768 0.011623 -0.036737 0.037580 0.098162 0.058618 0.075258 0.102882 0.019942 -0.020422 -0.076428 -0.071439 -0.023979 0.000795 0.098544 0.002541 -0.085396 -0.045179 -0.036041 0.014290 -0.024054 0.092630 -0.015471 0.071590 0.024736 -0.021545 0.073024 0.032306 -0.093934 0.087505 0.022243 -0.030770 -0.029578 -0.048157 0.006105 0.036446 0.120035 -0.031716 0.064304 0.136667 0.148008 0.099336 -0.076879 -0.037883 -0.098119 0.119533 -0.013453 -0.002077 -0.022434 -0.005896 0.004216 -0.022367 0.084837 -0.035029 0.012518 0.097418 -0.020286 -0.044986 -0.055989 -0.020261 0.058584 -0.004579 -0.017684 -0.083471 -0.040070 -0.057108 -0.010659 0.056717 0.018832 -0.033571 0.068558 0.079110 -0.040514 -0.047861 0.000696 -0.098271 0.024827 0.036258 0.010865 -0.042723 0.022545 -0.017881 0.012196 0.049740 0.069688
何红芳 0.019818 -0.042015 0.172918 -0.088205 -0.020612 0.050463 -0.074179 -0.060350 -0.005456 -0.075344 -0.006940 -0.125410 0.098745 0.031257 -0.059213 -0.141293 -0.002829 0.040186 0.002403 -0.008479 0.041520 0.123371 0.017006 -0.011066 0.037269 -0.056972 0.010437 0.089850 -0.098686 -0.028049 -0.008807 -0.067931 -0.044024 0.003544 0.085780 -0.000525 -0.113582 0.115468 0.062353 -0.022162 -0.029940 -0.117687 0.063347 -0.063751 0.053745 -0.068689 0.068027 -0.093205 0.096836 -0.124977 -0.094981 0.008843 -0.059950 0.000663 -0.066900 0.026377 0.013784 0.031384 0.035413 0.075764 0.078719 -0.113517 -0.117307 -0.035989 -0.153484 -0.072951 -0.156766 -0.141062 0.065416 -0.016529 -0.079381 0.080889 -0.162137 -0.013726 -0.029478 -0.000127 -0.085536 -0.016330 -0.067899 -0.049112 -0.006272 0.061697 -0.050080 -0.043554 -0.096756 0.004994 0.151270 0.087378 0.037684 -0.056560 -0.005991 -0.078555 -0.089378 -0.026989 -0.102665 0.131931 0.085614 0.050425 0.100457 -0.078352 0.027100 0.053194 0.019785 -0.099503 0.148405 -0.150236 0.103100 0.011392 -0.104404 -0.000627 -0.000615 -0.102281 0.057460 0.000056 -0.078912 0.003083 -0.031723 0.060074 0.050365 -0.063922 0.134920 -0.027575 0.094705 -0.059208 -0.138147 -0.033357 0.090735 -0.111884 0.042769 0.005058 -0.090846 0.006307 0.008080 -0.080585 0.153423 -0.066603 0.048502 -0.020206 -0.011895 0.137067 0.110434 0.113705 0.009904 0.009077 -0.055698 0.007444 -0.082509 0.096767 -0.040711 0.089036 -0.097233 -0.065850 -0.067475 0.039635 -0.095310 0.112359 -0.059352 -0.092862 0.076801 -0.047119 0.005031 0.048203 -0.078959 0.046634 0.038774 -0.072091 -0.033479 -0.173138 0.034050 -0.003475 -0.002006 0.036636 0.015425 -0.031743 0.158117 -0.026416 -0.053545 0.048375 -0.020440 -0.034382 0.135915 -0.026039 -0.018238 0.032338 -0.033816 -0.140021 -0.092963 -0.091043 0.009028 -0.090791 -0.083472 -0.123106 0.092624 -0.006339 -0.022609 -0.080211 -0.023813 -0.070872 -0.066171 -0.075838 -0.108549 0.048781 0.034528 0.044964 -0.015453 -0.004233 0.127594 0.039457 -0.102427 -0.026815 -0.102734 0.060116 0.031320 -0.092390 -0.050510 0.030373 -0.139328 -0.023871 0.108155 -0.003040 -0.051703 -0.067740 -0.053115 -0.053627 -0.097206 0.110917 -0.020642 0.027291 0.009331 0.092892 -0.024206 -0.074223 0.001695 0.056327 -0.067970 -0.011045 0.020434 0.062344 0.020990 0.067497 -0.026875 0.041516 0.100252 -0.041956 -0.021994 0.109284 -0.133006 -0.089111 0.052123 -0.078937 -0.101797 -0.078274 0.072839 -0.017229 -0.104463 -0.022279 -0.056047 -0.022419 -0.077242 -0.026139 0.023068 0.025030 0.026238 -0.030000 -0.008796 0.100734 -0.014328 0.084808 -0.048630 -0.067023 0.029919 -0.111301 0.035658 0.074945 -0.076021 0.099564 0.034258 0.040220 0.110209 0.075700 0.056789 0.075519 -0.014932 -0.040701 -0.035601 0.145668 -0.015652 0.122422 -0.006225 0.086288 0.006463 0.086835 -0.022324 0.048659 -0.043505 -0.129178 0.119122 0.077990 0.095391 -0.102351 -0.042231 0.105587 0.084481 0.006653 -0.049500 -0.110252 -0.069892 -0.019689 0.046693 -0.016932 -0.024805 -0.017037 -0.152832 0.086930 0.069356 0.026115 0.018231 -0.042910 -0.024804 0.129443 0.052741 0.085286 0.113815 0.045611 0.001865 -0.084615 -0.054360 -0.068626 0.005009 0.125835 0.004107 -0.074656 -0.079082 -0.067139 0.004378 0.000358 0.115344 0.013335 0.099938 0.016401 -0.058705 0.105513 0.064980 -0.087991 0.083691 0.048623 -0.038043 -0.002536 -0.026745 0.004984 0.086403 0.092646 -0.062471 0.083414 0.108379 0.138545 0.099813 -0.089089 -0.012207 -0.124098 0.119520 -0.032038 0.020650 -0.018558 0.007965 0.040943 -0.017179 0.070213 -0.041433 -0.015697 0.099850 -0.012148 -0.060268 -0.039389 -0.018589 0.040059 -0.011603 0.022702 -0.089545 -0.032522 -0.065413 -0.048332 0.085719 -0.001981 -0.042634 0.074573 0.104014 -0.028082 -0.056905 -0.002840 -0.098382 0.072944 0.062541 0.028883 -0.078721 0.009715 -0.034638 0.029156 0.068043 0.094504
杨媛媛 0.004518 -0.084507 0.197726 -0.046599 -0.035631 0.063671 -0.029084 -0.051277 0.028731 -0.116770 0.021535 -0.099384 0.127955 0.042271 -0.007855 -0.130491 -0.026433 0.009197 0.045342 0.002402 0.039259 0.095776 0.027647 -0.054245 0.009260 -0.012796 0.030697 0.103975 -0.085270 -0.046191 0.016485 -0.112642 -0.041017 -0.035357 0.081307 0.016069 -0.097861 0.083055 0.043106 0.014891 -0.025456 -0.105662 0.056117 -0.064697 0.035668 -0.066920 0.066966 -0.083165 0.119624 -0.123537 -0.119309 0.025540 -0.036310 0.057645 -0.094822 -0.000052 -0.010350 0.041428 0.055273 0.102284 0.069141 -0.098276 -0.120925 0.004554 -0.126903 -0.060759 -0.171028 -0.129878 0.067386 -0.036292 -0.076887 0.119212 -0.191041 -0.062046 0.013711 0.039539 -0.075540 0.001202 -0.115117 -0.050254 -0.020817 0.108027 -0.053310 0.003238 -0.079537 -0.017291 0.159745 0.064077 0.064009 -0.051785 -0.020753 -0.073427 -0.057504 -0.044782 -0.102290 0.134252 0.072397 0.061892 0.097964 -0.105227 0.043629 0.063470 0.014569 -0.086845 0.148039 -0.171827 0.091298 -0.035342 -0.105797 0.006237 -0.005125 -0.086262 0.038030 0.009659 -0.080820 0.066578 -0.040039 0.019809 0.077926 -0.043224 0.143450 -0.022565 0.071261 -0.043624 -0.135270 -0.050219 0.082867 -0.130619 -0.030167 -0.007709 -0.076257 -0.001251 -0.016480 -0.097310 0.155956 -0.030691 0.037204 -0.015809 -0.062252 0.125395 0.104779 0.110677 -0.036036 0.021034 -0.019547 0.018019 -0.086629 0.105598 -0.028518 0.092866 -0.084451 -0.065840 -0.106725 -0.010481 -0.065019 0.122946 -0.052952 -0.081554 0.127625 -0.065193 -0.068144 0.003286 -0.083768 0.026736 0.039776 -0.044631 -0.014750 -0.199842 0.011299 0.016485 0.046705 -0.028570 0.005114 0.015913 0.176886 -0.006194 -0.041823 0.067309 -0.035883 -0.018017 0.149203 -0.021459 -0.014690 0.077756 0.025395 -0.155668 -0.069946 -0.075325 0.029162 -0.052732 -0.067077 -0.105678 0.041447 -0.021896 -0.058223 -0.065443 -0.015149 -0.041313 -0.090028 -0.127538 -0.125187 0.043395 0.075530 0.027820 0.036892 0.030006 0.140281 0.024716 -0.087775 -0.054835 -0.100199 0.014486 0.054242 -0.085900 -0.044597 0.073860 -0.128625 -0.044643 0.079647 -0.033002 -0.034240 -0.037216 -0.045255 -0.014709 -0.097378 0.099031 0.016887 0.037628 0.007885 0.095547 0.001875 -0.055320 0.016202 0.033432 -0.068909 0.002207 -0.016617 0.036530 0.039769 0.053292 -0.043244 -0.006261 0.104207 -0.048571 0.019194 0.124528 -0.142316 -0.067854 0.051312 -0.065320 -0.097817 -0.066483 0.095024 -0.044597 -0.102000 -0.017302 -0.033854 -0.039200 -0.071078 0.000199 -0.012841 0.026602 -0.017573 -0.061347 -0.009536 0.108217 -0.039482 0.044374 -0.029983 -0.145762 -0.028319 -0.073315 0.058291 0.052792 -0.043875 0.092657 0.002153 0.031760 0.089649 0.126558 0.059239 0.104535 0.003291 -0.052834 -0.003065 0.178087 -0.009875 0.111661 -0.017202 0.063361 -0.019843 0.045565 -0.038011 0.077966 -0.014971 -0.112537 0.101171 0.077873 0.088201 -0.083126 -0.055184 0.114620 0.086172 0.016305 -0.021176 -0.107032 -0.053312 0.036639 0.019932 -0.007060 -0.016140 -0.005862 -0.167653 0.085169 0.036328 0.039981 0.015462 -0.053748 0.039913 0.110848 0.061441 0.087252 0.127694 0.018549 -0.026109 -0.091616 -0.086388 -0.023641 -0.001127 0.116093 0.000846 -0.101544 -0.049425 -0.047557 0.005269 -0.021553 0.107973 -0.023432 0.076784 0.034516 -0.027131 0.087637 0.039184 -0.111910 0.104872 0.024143 -0.023638 -0.037342 -0.064287 -0.006634 0.038248 0.136238 -0.045357 0.078914 0.153620 0.175560 0.114241 -0.093799 -0.038415 -0.115872 0.134184 -0.015558 0.003752 -0.037205 -0.010738 0.012740 -0.025903 0.094734 -0.037469 0.012960 0.108324 -0.022093 -0.045924 -0.068803 -0.019587 0.070979 -0.002084 -0.025178 -0.090508 -0.054968 -0.068814 -0.017031 0.066868 0.017723 -0.038462 0.082796 0.090250 -0.047898 -0.063111 0.006167 -0.124263 0.024029 0.042022 0.010225 -0.055269 0.020139 -0.024272 0.016569 0.068115 0.083219
万文娟 0.007392 -0.069305 0.175340 -0.048468 -0.033320 0.054411 -0.031783 -0.050761 0.024702 -0.096891 0.025001 -0.091024 0.108238 0.035179 -0.007943 -0.119739 -0.017236 0.012426 0.035882 0.005459 0.033504 0.085682 0.018828 -0.049661 0.015179 -0.014829 0.026706 0.090170 -0.082303 -0.049400 0.009323 -0.101909 -0.037406 -0.031144 0.077873 0.007196 -0.093930 0.076255 0.037424 0.011445 -0.020021 -0.093171 0.050344 -0.052443 0.029474 -0.061727 0.067706 -0.081259 0.106051 -0.111454 -0.109504 0.018991 -0.031563 0.050911 -0.085529 -0.002825 -0.001627 0.034143 0.057187 0.086486 0.065201 -0.087207 -0.110984 0.001405 -0.122792 -0.058265 -0.161811 -0.115896 0.062294 -0.028191 -0.069943 0.102609 -0.173131 -0.052181 0.010888 0.032382 -0.068262 0.000573 -0.101907 -0.055274 -0.026024 0.087848 -0.053545 -0.004587 -0.077814 -0.014158 0.145826 0.055772 0.061585 -0.047926 -0.028177 -0.071736 -0.054292 -0.039856 -0.096033 0.119710 0.059508 0.054715 0.084763 -0.094367 0.040491 0.055132 0.009594 -0.085478 0.130840 -0.153779 0.077054 -0.026613 -0.092472 0.005380 -0.001864 -0.080704 0.034817 0.002376 -0.074950 0.061374 -0.034623 0.016828 0.069250 -0.040812 0.130659 -0.023736 0.064843 -0.036757 -0.129551 -0.042606 0.075931 -0.121805 -0.022261 -0.009270 -0.070480 -0.000313 -0.013465 -0.087187 0.147682 -0.030805 0.035412 -0.012375 -0.054377 0.118846 0.092389 0.100258 -0.024884 0.015602 -0.016993 0.020673 -0.080910 0.098829 -0.031809 0.084412 -0.077184 -0.063680 -0.102413 -0.005976 -0.059981 0.116494 -0.047005 -0.079061 0.119601 -0.056494 -0.061442 0.002256 -0.081298 0.023515 0.042419 -0.036693 -0.011074 -0.179511 0.017499 0.021146 0.040249 -0.019216 0.009795 0.009127 0.159253 -0.005664 -0.040343 0.060522 -0.031555 -0.018261 0.131025 -0.021040 -0.010711 0.069584 0.019621 -0.141710 -0.064498 -0.067358 0.026959 -0.046366 -0.065043 -0.097696 0.044679 -0.023185 -0.052802 -0.059670 -0.016082 -0.036133 -0.078451 -0.112007 -0.111690 0.038853 0.072937 0.028817 0.029836 0.026777 0.128691 0.025131 -0.084908 -0.052394 -0.099168 0.018022 0.051977 -0.074728 -0.040151 0.067170 -0.123358 -0.037990 0.074054 -0.025478 -0.029352 -0.036352 -0.044707 -0.016695 -0.089531 0.090476 0.012171 0.031268 0.010317 0.085187 0.006692 -0.046302 0.015550 0.036129 -0.064270 -0.003933 -0.012498 0.026830 0.031234 0.041647 -0.034233 -0.004634 0.094123 -0.039165 0.013394 0.111239 -0.129942 -0.061625 0.045494 -0.056132 -0.082769 -0.057515 0.080264 -0.041334 -0.091053 -0.013348 -0.031696 -0.034931 -0.063353 0.002630 -0.017300 0.029480 -0.012222 -0.053358 -0.009958 0.102764 -0.035641 0.046352 -0.022670 -0.124900 -0.023754 -0.078942 0.050755 0.051424 -0.041412 0.082815 0.005941 0.020829 0.086651 0.111314 0.048636 0.095569 -0.000068 -0.046571 -0.000230 0.163168 -0.003243 0.098615 -0.015567 0.061178 -0.014731 0.039943 -0.036380 0.067757 -0.011781 -0.102965 0.096300 0.077294 0.087298 -0.071996 -0.050732 0.101985 0.080180 0.009109 -0.023130 -0.091176 -0.047015 0.029575 0.026706 -0.011026 -0.017954 -0.007117 -0.155067 0.070498 0.033868 0.036052 0.011545 -0.041428 0.040126 0.104219 0.059088 0.080044 0.113004 0.018840 -0.023870 -0.083511 -0.075944 -0.028403 -0.001510 0.105594 0.004006 -0.089434 -0.045807 -0.042244 0.012336 -0.023625 0.099965 -0.020617 0.074540 0.029727 -0.023148 0.075962 0.034426 -0.101278 0.095561 0.028460 -0.026179 -0.032248 -0.056031 0.004649 0.040883 0.128135 -0.038244 0.072452 0.143165 0.153943 0.102819 -0.084114 -0.037575 -0.103318 0.127463 -0.015112 0.002745 -0.027568 -0.008049 0.007226 -0.025515 0.089476 -0.039570 0.013469 0.103060 -0.024514 -0.041447 -0.062171 -0.023184 0.062402 -0.003864 -0.018639 -0.088488 -0.046551 -0.063591 -0.010478 0.058616 0.019837 -0.036104 0.075671 0.081821 -0.042506 -0.053622 0.003901 -0.111805 0.028049 0.035273 0.013759 -0.046624 0.022480 -0.021409 0.017399 0.059351 0.076956
雷侠霞 0.006485 -0.070705 0.169167 -0.041361 -0.029529 0.051502 -0.026998 -0.046048 0.026655 -0.098338 0.022915 -0.081710 0.107869 0.035293 -0.004567 -0.112976 -0.019327 0.011482 0.038793 0.005082 0.035700 0.082169 0.021538 -0.047219 0.011020 -0.013793 0.026118 0.085249 -0.073557 -0.045339 0.012198 -0.099251 -0.035904 -0.033769 0.076705 0.011976 -0.090345 0.069792 0.036885 0.013997 -0.021898 -0.094044 0.049038 -0.055409 0.028284 -0.060615 0.065349 -0.077461 0.106319 -0.110127 -0.107840 0.022876 -0.030216 0.052103 -0.085418 -0.004235 -0.004649 0.035583 0.053739 0.088753 0.064383 -0.084354 -0.110872 0.004502 -0.115402 -0.058094 -0.160082 -0.114704 0.059478 -0.032434 -0.067366 0.107801 -0.173480 -0.056107 0.009932 0.036894 -0.068071 0.002997 -0.104433 -0.050673 -0.021737 0.094761 -0.051501 0.000603 -0.074494 -0.017379 0.143547 0.057790 0.059630 -0.045340 -0.024715 -0.068948 -0.052013 -0.039797 -0.091558 0.120461 0.061257 0.057502 0.084195 -0.093201 0.041612 0.055124 0.010521 -0.081496 0.129977 -0.153567 0.076266 -0.029202 -0.093622 0.004201 -0.004730 -0.076770 0.035974 0.003505 -0.074392 0.064079 -0.033010 0.016500 0.069358 -0.037216 0.128420 -0.020601 0.061473 -0.034650 -0.126796 -0.043547 0.076228 -0.119763 -0.027235 -0.008315 -0.068605 -0.003767 -0.015810 -0.088463 0.146999 -0.027597 0.033016 -0.014927 -0.054472 0.114625 0.093135 0.096682 -0.032788 0.019819 -0.013703 0.020277 -0.077717 0.098218 -0.029155 0.084779 -0.077018 -0.061535 -0.103428 -0.008610 -0.057881 0.113189 -0.047186 -0.076456 0.120426 -0.061404 -0.065445 0.001612 -0.078984 0.022698 0.039200 -0.037309 -0.012555 -0.181200 0.011247 0.018110 0.042624 -0.024565 0.005418 0.012750 0.162737 -0.006197 -0.038302 0.062753 -0.031018 -0.016413 0.134817 -0.021618 -0.010093 0.070715 0.024029 -0.140845 -0.063905 -0.066558 0.029258 -0.044476 -0.060884 -0.094267 0.038673 -0.023041 -0.053412 -0.058099 -0.013723 -0.036507 -0.080862 -0.114258 -0.109877 0.035249 0.072402 0.025549 0.031139 0.027002 0.126606 0.020259 -0.083395 -0.051878 -0.093284 0.012660 0.050973 -0.077755 -0.041479 0.065584 -0.119891 -0.038963 0.071893 -0.029440 -0.028601 -0.036190 -0.041496 -0.014611 -0.088055 0.090512 0.015134 0.033745 0.010257 0.084083 0.006483 -0.047640 0.017784 0.033554 -0.062595 0.001243 -0.013425 0.030301 0.032070 0.043217 -0.036710 -0.005630 0.093231 -0.041104 0.016511 0.110918 -0.129136 -0.058884 0.045189 -0.055747 -0.084563 -0.055730 0.083560 -0.042032 -0.087701 -0.014994 -0.030724 -0.033377 -0.061508 0.006368 -0.015742 0.028085 -0.012840 -0.055721 -0.010647 0.101814 -0.037401 0.042707 -0.023760 -0.131536 -0.026307 -0.069942 0.051891 0.046433 -0.040051 0.083256 0.004886 0.024689 0.083108 0.114384 0.050369 0.098225 0.000709 -0.046720 -0.002090 0.164791 -0.005580 0.098669 -0.018493 0.056064 -0.017660 0.036951 -0.034974 0.068781 -0.011711 -0.101164 0.090793 0.071993 0.082647 -0.072155 -0.049614 0.102769 0.077168 0.012620 -0.019550 -0.094237 -0.048147 0.033900 0.021714 -0.008468 -0.013749 -0.005050 -0.152309 0.073575 0.031850 0.034768 0.012282 -0.046047 0.040370 0.100215 0.056488 0.081762 0.113928 0.019394 -0.023401 -0.081635 -0.077402 -0.022668 0.000514 0.105892 0.003624 -0.091734 -0.044518 -0.040818 0.009859 -0.022318 0.098912 -0.020579 0.071824 0.032306 -0.022178 0.076124 0.034800 -0.104150 0.096767 0.024179 -0.024554 -0.033984 -0.059682 0.000009 0.034159 0.128381 -0.037916 0.074009 0.143637 0.160920 0.101661 -0.083236 -0.038223 -0.106243 0.126867 -0.017427 0.004386 -0.030189 -0.008009 0.007102 -0.026439 0.089674 -0.038141 0.012485 0.102020 -0.020697 -0.040748 -0.064154 -0.019490 0.064725 -0.001515 -0.020983 -0.087744 -0.048095 -0.060968 -0.012630 0.058195 0.016858 -0.035097 0.077159 0.082936 -0.041713 -0.055230 0.005390 -0.112868 0.024928 0.036902 0.010658 -0.048678 0.022949 -0.020216 0.014226 0.060667 0.075460
赵志花 0.010725 -0.072138 0.174782 -0.044802 -0.035348 0.053890 -0.026224 -0.049255 0.030108 -0.097599 0.023536 -0.087236 0.110357 0.033913 -0.004116 -0.115882 -0.021054 0.012694 0.039101 0.003257 0.035708 0.085139 0.017661 -0.049709 0.011818 -0.013784 0.024633 0.089524 -0.080039 -0.046483 0.007535 -0.103807 -0.037695 -0.033886 0.079162 0.010138 -0.095288 0.071888 0.039041 0.014298 -0.021512 -0.095226 0.048538 -0.052209 0.026729 -0.061235 0.066665 -0.079707 0.106583 -0.110977 -0.112752 0.023670 -0.029094 0.054988 -0.087904 -0.003988 0.000797 0.036681 0.058983 0.089694 0.065811 -0.087210 -0.115044 0.002833 -0.123054 -0.062421 -0.163823 -0.117074 0.059446 -0.030318 -0.068952 0.107839 -0.178182 -0.057014 0.013693 0.036917 -0.071139 0.003404 -0.105310 -0.056646 -0.025334 0.092176 -0.053816 -0.001075 -0.079440 -0.014396 0.146977 0.056485 0.062447 -0.044791 -0.026995 -0.072440 -0.051999 -0.040467 -0.093874 0.121037 0.057909 0.058808 0.085172 -0.094938 0.040042 0.053237 0.008418 -0.088093 0.132758 -0.155573 0.076151 -0.029340 -0.095121 0.005686 -0.004884 -0.077849 0.033578 0.001368 -0.078991 0.064666 -0.035553 0.014121 0.067169 -0.036757 0.134249 -0.024901 0.062014 -0.036692 -0.132227 -0.042693 0.077648 -0.122733 -0.025933 -0.009897 -0.073980 -0.004436 -0.017035 -0.088259 0.150651 -0.026177 0.033605 -0.013347 -0.058124 0.117729 0.095453 0.099265 -0.030692 0.018636 -0.016007 0.022649 -0.080483 0.103804 -0.030701 0.083609 -0.077945 -0.063215 -0.104826 -0.008447 -0.060525 0.116161 -0.043446 -0.081925 0.121571 -0.060453 -0.068587 0.002072 -0.079185 0.022208 0.040198 -0.037448 -0.012847 -0.182527 0.013586 0.022394 0.044919 -0.022031 0.007960 0.012090 0.164306 -0.004276 -0.041922 0.063778 -0.032790 -0.015113 0.136587 -0.020777 -0.011111 0.072307 0.025162 -0.144436 -0.064720 -0.072932 0.028498 -0.044758 -0.061150 -0.096816 0.042288 -0.019182 -0.054045 -0.054021 -0.013184 -0.038248 -0.080228 -0.114980 -0.111005 0.034987 0.076284 0.026967 0.032319 0.029331 0.129928 0.023097 -0.088865 -0.056163 -0.102004 0.016533 0.054936 -0.077064 -0.041168 0.068718 -0.123913 -0.039073 0.074317 -0.030414 -0.030888 -0.034846 -0.043128 -0.017763 -0.086912 0.092777 0.016164 0.031692 0.006221 0.085452 0.006638 -0.045567 0.020827 0.035815 -0.062388 -0.001903 -0.015939 0.027399 0.031015 0.041053 -0.036258 -0.005041 0.098281 -0.037942 0.012521 0.112314 -0.133452 -0.062436 0.043678 -0.059423 -0.082106 -0.057407 0.082314 -0.043481 -0.090255 -0.012297 -0.027022 -0.034003 -0.064358 0.005908 -0.019169 0.025294 -0.015109 -0.055844 -0.010417 0.103470 -0.038457 0.047331 -0.024740 -0.129326 -0.024153 -0.076007 0.053550 0.049375 -0.037652 0.082834 0.004659 0.024164 0.089485 0.116076 0.049702 0.099876 0.000847 -0.046137 -0.001591 0.169299 -0.005916 0.098339 -0.018838 0.056814 -0.017514 0.040180 -0.034146 0.070518 -0.011836 -0.107598 0.092667 0.078508 0.087596 -0.074427 -0.050705 0.104725 0.080046 0.008978 -0.017182 -0.092327 -0.045910 0.033823 0.021101 -0.007043 -0.017127 -0.006530 -0.159274 0.071106 0.033704 0.037794 0.012669 -0.044467 0.043328 0.104028 0.060211 0.080038 0.116654 0.018473 -0.025049 -0.087010 -0.078057 -0.024889 -0.001761 0.106086 0.003753 -0.093414 -0.046963 -0.042857 0.011261 -0.023386 0.100750 -0.019829 0.073755 0.031907 -0.020693 0.075889 0.031275 -0.104645 0.098666 0.023388 -0.029917 -0.034114 -0.057822 0.003417 0.038924 0.132557 -0.035858 0.073287 0.147125 0.161644 0.103092 -0.084438 -0.036935 -0.108499 0.126784 -0.016084 0.000021 -0.027379 -0.009192 0.005208 -0.024687 0.093413 -0.039105 0.012748 0.104492 -0.025222 -0.047090 -0.064135 -0.023605 0.063486 -0.001545 -0.020022 -0.090003 -0.046626 -0.062117 -0.010350 0.056741 0.018282 -0.034126 0.074100 0.085476 -0.041178 -0.051276 0.005789 -0.113102 0.024345 0.036005 0.010515 -0.049294 0.024870 -0.020623 0.015676 0.058387 0.077189
王倩 0.008834 -0.065686 0.159544 -0.043520 -0.028033 0.050527 -0.029059 -0.043332 0.024992 -0.090446 0.020709 -0.081747 0.101288 0.033288 -0.009567 -0.109841 -0.017639 0.012605 0.033703 0.003756 0.031853 0.079338 0.018420 -0.044144 0.012170 -0.016410 0.023509 0.080851 -0.073948 -0.042582 0.008329 -0.092778 -0.034415 -0.028720 0.074453 0.007954 -0.091015 0.073039 0.038188 0.011754 -0.019207 -0.089300 0.047812 -0.052725 0.027230 -0.059907 0.064020 -0.077123 0.100451 -0.107001 -0.105962 0.019600 -0.031714 0.047591 -0.081138 -0.000345 -0.002110 0.034286 0.051970 0.084331 0.062855 -0.085172 -0.108212 0.000031 -0.117384 -0.057794 -0.155137 -0.113557 0.058258 -0.027180 -0.065119 0.100820 -0.166540 -0.051747 0.009764 0.032203 -0.068224 0.002744 -0.096782 -0.049989 -0.022364 0.085733 -0.049880 -0.003224 -0.075395 -0.013953 0.139212 0.055510 0.057032 -0.045689 -0.024709 -0.068513 -0.051588 -0.038957 -0.091365 0.115807 0.059445 0.053320 0.080051 -0.089353 0.038243 0.052542 0.009822 -0.079515 0.125819 -0.148410 0.076418 -0.025714 -0.088697 0.004232 -0.002389 -0.075801 0.035824 0.003574 -0.073021 0.059145 -0.033152 0.017706 0.066606 -0.039343 0.124975 -0.022629 0.060498 -0.036226 -0.123327 -0.040772 0.073464 -0.114695 -0.021517 -0.008718 -0.069192 -0.001938 -0.013892 -0.084958 0.142846 -0.028022 0.033401 -0.013453 -0.051986 0.114615 0.091329 0.096825 -0.026503 0.015246 -0.015950 0.018945 -0.075195 0.096010 -0.030418 0.079263 -0.075609 -0.058792 -0.097908 -0.004249 -0.057978 0.110494 -0.044872 -0.076391 0.114053 -0.055980 -0.057882 0.003804 -0.075865 0.020942 0.038527 -0.037923 -0.012782 -0.173761 0.013950 0.018286 0.039373 -0.018496 0.006121 0.008632 0.155952 -0.004599 -0.037828 0.059234 -0.029846 -0.017609 0.128766 -0.019994 -0.011412 0.067061 0.020347 -0.135880 -0.063785 -0.065188 0.026868 -0.046438 -0.060062 -0.095149 0.042213 -0.021177 -0.049088 -0.055435 -0.014873 -0.038592 -0.075460 -0.108107 -0.107313 0.034157 0.067827 0.025001 0.027510 0.024185 0.121607 0.023046 -0.082600 -0.049870 -0.091711 0.017534 0.050566 -0.074748 -0.039818 0.062371 -0.117950 -0.035738 0.071046 -0.025041 -0.030353 -0.036933 -0.040244 -0.015977 -0.085237 0.087564 0.012111 0.032025 0.007380 0.082594 0.003944 -0.046386 0.016508 0.032143 -0.060197 -0.001693 -0.011452 0.028658 0.031155 0.041623 -0.035783 -0.004296 0.091759 -0.036397 0.013259 0.107368 -0.124546 -0.059683 0.044149 -0.057010 -0.082368 -0.054831 0.077059 -0.037018 -0.086381 -0.015122 -0.028318 -0.032766 -0.061696 0.003211 -0.015255 0.026404 -0.008905 -0.052112 -0.010459 0.099396 -0.032758 0.043995 -0.023837 -0.120941 -0.021402 -0.074417 0.048367 0.047649 -0.040916 0.080163 0.007493 0.021874 0.084259 0.108358 0.047844 0.091292 0.000158 -0.044368 -0.001923 0.158573 -0.004422 0.096575 -0.016920 0.056653 -0.015061 0.041269 -0.035032 0.065154 -0.014468 -0.101278 0.091634 0.070988 0.080589 -0.071840 -0.045806 0.097708 0.076197 0.011716 -0.021768 -0.091400 -0.045828 0.028605 0.022404 -0.009171 -0.016333 -0.005786 -0.148448 0.068778 0.033710 0.033922 0.011294 -0.042854 0.036779 0.101162 0.056848 0.076661 0.108280 0.020235 -0.021409 -0.078275 -0.071558 -0.026857 -0.000974 0.103259 0.003928 -0.085857 -0.045065 -0.041050 0.009256 -0.020990 0.096141 -0.018924 0.071080 0.028019 -0.024704 0.076543 0.033895 -0.099299 0.092661 0.026699 -0.026331 -0.029248 -0.052173 0.001920 0.038171 0.123225 -0.036678 0.071611 0.134911 0.150683 0.099725 -0.080331 -0.034274 -0.101595 0.122095 -0.015843 0.005788 -0.026968 -0.006547 0.008046 -0.023676 0.085419 -0.037884 0.011730 0.099880 -0.020752 -0.042402 -0.058254 -0.020548 0.061254 -0.003622 -0.016999 -0.084214 -0.044534 -0.059846 -0.014200 0.056480 0.015962 -0.034034 0.072814 0.081990 -0.038867 -0.052472 0.002993 -0.109176 0.027340 0.036239 0.014065 -0.048890 0.021081 -0.019014 0.014810 0.057266 0.075240
凌万里 0.020772 -0.039420 0.213598 -0.057586 -0.056244 0.084847 -0.018801 -0.093033 0.024063 -0.056013 0.026249 -0.150519 0.132161 0.037507 -0.004113 -0.149616 -0.022719 0.049320 -0.018054 -0.010524 0.011177 0.115361 -0.014397 -0.079553 0.007708 0.012557 0.040129 0.124740 -0.114708 -0.094332 -0.036333 -0.134932 -0.029210 -0.016089 0.117102 0.011431 -0.141795 0.101820 0.016496 0.004402 -0.027789 -0.071498 0.024788 -0.066911 0.006673 -0.019441 0.038258 -0.116141 0.134962 -0.141781 -0.158343 0.004260 -0.023681 0.066358 -0.124030 0.022793 0.012154 0.048325 0.085035 0.105775 0.095304 -0.100164 -0.109949 0.004936 -0.173744 -0.106328 -0.170725 -0.135406 0.055240 -0.020389 -0.064189 0.094599 -0.193596 -0.028805 0.025241 0.064030 -0.042700 -0.005574 -0.118599 -0.104489 -0.070836 0.099026 -0.024607 -0.037855 -0.084562 0.008332 0.143411 0.090184 0.041650 -0.015879 -0.047776 -0.119724 -0.055567 -0.072780 -0.157237 0.113127 0.030432 0.056853 0.083408 -0.129352 0.044132 0.052863 -0.013262 -0.135847 0.169411 -0.145486 0.053768 -0.055137 -0.121558 0.043178 0.028365 -0.095113 0.016182 -0.029787 -0.091416 0.091907 -0.030559 0.018750 0.069101 -0.072356 0.178010 -0.058911 0.056705 -0.011994 -0.165087 -0.080082 0.120369 -0.130560 -0.050329 -0.041585 -0.089834 0.018937 0.007909 -0.115386 0.143247 -0.038931 0.038543 -0.053969 -0.068555 0.127603 0.081548 0.142010 -0.005300 0.041017 -0.032464 0.062040 -0.123029 0.095732 -0.058085 0.091664 -0.044027 -0.060264 -0.126061 -0.032267 -0.068081 0.168863 -0.014018 -0.107424 0.113733 -0.087573 -0.084326 0.067457 -0.084528 0.051972 0.017639 -0.041290 -0.033510 -0.179703 0.033643 0.039351 0.014102 -0.037675 -0.002343 0.000468 0.176419 0.020524 -0.084426 0.039881 -0.045130 -0.026427 0.118861 -0.030486 -0.030777 0.106717 0.032100 -0.113805 -0.069142 -0.094371 0.048107 -0.031791 -0.110730 -0.132276 0.078597 -0.012630 -0.094393 -0.033107 0.004596 -0.012058 -0.099115 -0.124224 -0.147426 0.059750 0.089462 0.052366 0.009040 0.037258 0.135958 0.070610 -0.130497 -0.065388 -0.157821 0.045528 0.044023 -0.097595 -0.022535 0.083393 -0.175528 -0.010304 0.116522 -0.028920 0.005975 -0.083561 -0.021054 -0.039244 -0.076065 0.078718 0.030038 -0.018034 -0.017533 0.066206 -0.016936 -0.067909 0.038194 0.027562 -0.071036 -0.002201 0.009375 0.007551 0.019632 0.059040 -0.052998 -0.003274 0.142600 -0.039226 -0.026782 0.144914 -0.164425 -0.056833 0.088709 -0.080128 -0.054571 -0.072912 0.064593 -0.025062 -0.105572 -0.011962 0.001505 -0.066776 -0.093810 0.035522 -0.046177 0.027743 -0.044337 -0.043253 0.018941 0.085838 -0.066498 0.101134 -0.006912 -0.156334 -0.028742 -0.097867 0.035972 0.045053 -0.079308 0.095071 0.010455 0.002163 0.117762 0.113868 0.068016 0.125459 -0.021040 -0.029889 0.040095 0.198674 -0.045917 0.132331 -0.042798 0.098937 0.008966 0.099643 -0.038040 0.066774 0.004985 -0.168045 0.119441 0.129571 0.126899 -0.094563 -0.073137 0.135094 0.106622 -0.037066 0.018245 -0.082331 -0.061868 0.038068 0.035718 -0.031473 0.002770 0.018910 -0.204085 0.080938 0.100946 0.054210 0.029192 -0.040723 0.062796 0.169036 0.091504 0.077332 0.131896 0.057151 -0.055543 -0.109745 -0.117184 -0.079660 0.016459 0.092780 0.018147 -0.073851 -0.042343 -0.052966 0.004596 -0.040142 0.136470 -0.019881 0.120452 0.042240 -0.026784 0.061633 -0.005928 -0.098410 0.120917 0.053087 -0.065755 -0.015639 -0.067852 0.019477 0.075975 0.149012 -0.042841 0.037528 0.170747 0.198351 0.079288 -0.054244 -0.061137 -0.128155 0.143658 -0.023342 -0.021347 -0.009620 -0.011299 0.009339 -0.042428 0.092368 -0.092799 0.021497 0.138495 -0.059808 -0.075965 -0.083667 -0.006019 0.041506 0.026290 0.005061 -0.111838 -0.054174 -0.082190 0.009451 0.033115 -0.004504 -0.036207 0.076846 0.093437 -0.080168 -0.031951 0.000188 -0.125707 0.016859 0.068311 0.042466 -0.070029 0.022402 0.010076 0.003873 0.019584 0.086032
李红利 0.008296 -0.069970 0.182811 -0.052315 -0.029938 0.062390 -0.032207 -0.050072 0.024734 -0.097559 0.028056 -0.095931 0.110972 0.039459 -0.011057 -0.128102 -0.023856 0.017161 0.032605 0.006047 0.038199 0.094786 0.019196 -0.054778 0.014306 -0.014160 0.031578 0.088705 -0.084430 -0.052602 0.003594 -0.107493 -0.038632 -0.034676 0.087775 0.011144 -0.109367 0.083186 0.045382 0.016681 -0.022418 -0.104356 0.053370 -0.055627 0.026677 -0.064592 0.069658 -0.091449 0.115753 -0.120193 -0.125188 0.023222 -0.034240 0.054429 -0.095490 0.001858 0.000803 0.043857 0.062338 0.094147 0.078251 -0.098927 -0.122589 0.005069 -0.137659 -0.071676 -0.180277 -0.134751 0.063470 -0.028802 -0.076234 0.118101 -0.193836 -0.058522 0.007071 0.042568 -0.077769 0.002866 -0.114373 -0.065496 -0.028712 0.096624 -0.059567 -0.008095 -0.083939 -0.016012 0.163650 0.064542 0.069028 -0.051118 -0.033534 -0.088032 -0.056716 -0.046713 -0.111895 0.133096 0.067308 0.055342 0.096281 -0.109538 0.046068 0.063120 0.013129 -0.092957 0.150044 -0.171069 0.085278 -0.035805 -0.104132 0.012114 -0.001020 -0.088607 0.040019 0.004272 -0.090067 0.075275 -0.035748 0.019966 0.073924 -0.045692 0.148906 -0.027305 0.066963 -0.036493 -0.145185 -0.051830 0.088070 -0.128580 -0.026306 -0.015337 -0.080623 -0.001372 -0.013282 -0.097997 0.161406 -0.030561 0.036512 -0.020128 -0.062519 0.134039 0.105540 0.112698 -0.025276 0.019117 -0.014989 0.028707 -0.089208 0.112033 -0.031101 0.094297 -0.079272 -0.069025 -0.109354 -0.011030 -0.067322 0.130982 -0.044195 -0.088364 0.133861 -0.065093 -0.069571 0.011068 -0.090068 0.023888 0.045211 -0.042500 -0.018481 -0.198199 0.020321 0.025057 0.039617 -0.025699 0.010162 0.010984 0.178951 -0.001851 -0.040695 0.062667 -0.037387 -0.019042 0.145349 -0.026215 -0.016093 0.079319 0.024604 -0.157668 -0.077017 -0.072528 0.036692 -0.056652 -0.077970 -0.113019 0.051906 -0.022413 -0.061771 -0.061531 -0.018177 -0.038591 -0.088374 -0.127574 -0.126117 0.041220 0.083119 0.029029 0.032985 0.033979 0.142887 0.032965 -0.099259 -0.059842 -0.116960 0.018555 0.060153 -0.090593 -0.048596 0.077257 -0.142329 -0.037784 0.087499 -0.026500 -0.029195 -0.045286 -0.049094 -0.020743 -0.098830 0.099363 0.018782 0.032874 0.011266 0.092166 0.005631 -0.054246 0.021917 0.034698 -0.066232 -0.003964 -0.010739 0.034280 0.037116 0.048539 -0.037692 -0.007994 0.103508 -0.038705 0.014351 0.124395 -0.143879 -0.064346 0.050061 -0.069152 -0.088901 -0.068986 0.083731 -0.040851 -0.097277 -0.010986 -0.030333 -0.042168 -0.069499 0.007998 -0.016847 0.032779 -0.009490 -0.054644 -0.013461 0.113504 -0.042797 0.059791 -0.020887 -0.144614 -0.020613 -0.089529 0.053526 0.052946 -0.048799 0.092753 0.011487 0.025725 0.099552 0.122696 0.055137 0.105057 0.001666 -0.047193 0.005446 0.185928 -0.004301 0.113656 -0.019643 0.062660 -0.019729 0.051507 -0.041480 0.074047 -0.014837 -0.121091 0.108724 0.082422 0.091948 -0.080981 -0.050695 0.118557 0.086549 0.005653 -0.016044 -0.105067 -0.055322 0.029211 0.033488 -0.011892 -0.020410 -0.008010 -0.177840 0.078007 0.046638 0.039314 0.015286 -0.043878 0.044731 0.120497 0.066619 0.091186 0.129715 0.024296 -0.030832 -0.097002 -0.090360 -0.036823 -0.002104 0.121683 0.006878 -0.097531 -0.054076 -0.042874 0.013965 -0.027210 0.113444 -0.020935 0.083330 0.030441 -0.026516 0.085484 0.036497 -0.109324 0.101659 0.034764 -0.031842 -0.032249 -0.059809 0.002557 0.046136 0.140687 -0.037018 0.078105 0.164168 0.176285 0.114305 -0.088071 -0.044049 -0.119977 0.141713 -0.018343 -0.001551 -0.032013 -0.006651 0.006956 -0.029551 0.096855 -0.051796 0.012958 0.117897 -0.026804 -0.046250 -0.066011 -0.018243 0.072524 -0.002014 -0.019733 -0.095456 -0.055166 -0.070020 -0.014840 0.067172 0.022489 -0.038948 0.080534 0.098510 -0.050716 -0.057802 0.007153 -0.124008 0.030429 0.044611 0.018989 -0.059059 0.024138 -0.025685 0.016713 0.064120 0.084809
张彤 0.005123 -0.076212 0.177150 -0.043518 -0.032165 0.054190 -0.027140 -0.048845 0.028666 -0.102809 0.024942 -0.086352 0.111578 0.037622 -0.005992 -0.116507 -0.020711 0.009439 0.040844 0.005310 0.035000 0.084271 0.024266 -0.051661 0.012884 -0.011777 0.026622 0.090973 -0.076608 -0.046656 0.014280 -0.104955 -0.039483 -0.033179 0.076968 0.012899 -0.093624 0.072743 0.038726 0.012801 -0.020753 -0.094904 0.050999 -0.054436 0.030209 -0.064424 0.065438 -0.080634 0.108744 -0.115600 -0.113135 0.022323 -0.030117 0.054866 -0.088789 -0.004835 -0.005474 0.036724 0.055556 0.092024 0.065054 -0.087150 -0.115768 0.006033 -0.118507 -0.059751 -0.163554 -0.117665 0.060619 -0.033371 -0.068588 0.112695 -0.179661 -0.060039 0.012727 0.038395 -0.070151 0.003472 -0.108999 -0.053223 -0.021573 0.099261 -0.055247 0.002861 -0.076422 -0.017928 0.149712 0.059625 0.060610 -0.046702 -0.024852 -0.069433 -0.051795 -0.039066 -0.094425 0.124436 0.065026 0.058609 0.087703 -0.098491 0.043493 0.056685 0.010067 -0.085057 0.135488 -0.159481 0.081536 -0.033617 -0.097995 0.004651 -0.003966 -0.082674 0.037175 0.006751 -0.076588 0.066166 -0.035309 0.016500 0.070374 -0.038338 0.130547 -0.023849 0.063543 -0.038407 -0.128647 -0.043750 0.079252 -0.125181 -0.028643 -0.009370 -0.070647 -0.004811 -0.016709 -0.093260 0.149143 -0.026825 0.034280 -0.013397 -0.058666 0.119204 0.095226 0.101340 -0.032148 0.018421 -0.016333 0.020283 -0.080665 0.102453 -0.028968 0.088510 -0.077710 -0.063967 -0.104505 -0.010410 -0.059894 0.115983 -0.049287 -0.078230 0.124431 -0.061462 -0.069606 -0.001133 -0.082099 0.019807 0.040368 -0.037187 -0.012687 -0.187431 0.012957 0.018476 0.044204 -0.026738 0.006459 0.013317 0.165374 -0.005623 -0.038130 0.064860 -0.033889 -0.016751 0.138069 -0.021553 -0.011741 0.074394 0.026865 -0.148112 -0.064615 -0.068876 0.030396 -0.046422 -0.060538 -0.097505 0.039020 -0.024064 -0.055001 -0.057201 -0.016667 -0.039134 -0.083000 -0.120733 -0.114513 0.036808 0.074008 0.027510 0.035785 0.029360 0.132610 0.021891 -0.085196 -0.056692 -0.095768 0.012201 0.054876 -0.079654 -0.042022 0.069681 -0.120090 -0.040684 0.072686 -0.031968 -0.031678 -0.034976 -0.043357 -0.014784 -0.089138 0.093400 0.017631 0.035690 0.009527 0.086540 0.007504 -0.048226 0.018551 0.033153 -0.062769 -0.000384 -0.015706 0.030173 0.033570 0.044456 -0.039228 -0.006821 0.095086 -0.044051 0.018460 0.114790 -0.133343 -0.060763 0.047460 -0.057967 -0.086301 -0.057783 0.087572 -0.043214 -0.092942 -0.013877 -0.029759 -0.033860 -0.063525 0.006021 -0.017911 0.029001 -0.014523 -0.055706 -0.013186 0.104305 -0.038456 0.044479 -0.024972 -0.136000 -0.026290 -0.070753 0.052806 0.049629 -0.037919 0.085157 0.003100 0.025144 0.085882 0.116719 0.053535 0.099846 0.002008 -0.047931 -0.000562 0.171057 -0.004177 0.100305 -0.016988 0.057837 -0.017345 0.037155 -0.038046 0.074352 -0.014458 -0.105462 0.095262 0.075255 0.086589 -0.076075 -0.050177 0.106238 0.078317 0.015699 -0.017676 -0.096260 -0.049894 0.034231 0.021876 -0.007788 -0.015511 -0.006996 -0.158505 0.075014 0.031930 0.036339 0.012589 -0.045756 0.042826 0.103558 0.060476 0.084507 0.120721 0.017002 -0.024317 -0.085014 -0.080346 -0.020897 0.001697 0.108914 0.003838 -0.097415 -0.046931 -0.041413 0.011396 -0.024328 0.100170 -0.020672 0.074813 0.033652 -0.022896 0.078672 0.034646 -0.105359 0.099339 0.024439 -0.025948 -0.035745 -0.062819 -0.001538 0.035079 0.133846 -0.040790 0.077746 0.149043 0.166060 0.105525 -0.087123 -0.040022 -0.108059 0.129529 -0.015740 0.003044 -0.032706 -0.009321 0.008876 -0.025100 0.093364 -0.038300 0.015010 0.105510 -0.022369 -0.043123 -0.066200 -0.019589 0.067402 0.000316 -0.023719 -0.090613 -0.050269 -0.062569 -0.012893 0.060776 0.017583 -0.034970 0.080440 0.087142 -0.044922 -0.058518 0.004656 -0.118661 0.023956 0.036867 0.010518 -0.050998 0.021676 -0.021954 0.016298 0.063989 0.079417
曹雅茹 0.007601 -0.066038 0.166036 -0.043622 -0.030291 0.051141 -0.028637 -0.045658 0.025001 -0.091746 0.020923 -0.085316 0.103149 0.031884 -0.008030 -0.111650 -0.019014 0.011978 0.034031 0.004710 0.034208 0.084653 0.018137 -0.046125 0.012397 -0.016541 0.025470 0.082647 -0.075059 -0.042673 0.006023 -0.096584 -0.036443 -0.030932 0.076843 0.008176 -0.095501 0.074344 0.038199 0.011549 -0.021945 -0.095329 0.047858 -0.051771 0.026694 -0.062554 0.065713 -0.079299 0.105944 -0.110849 -0.108426 0.021904 -0.032215 0.048732 -0.084355 -0.000850 0.000747 0.036822 0.055531 0.087599 0.064733 -0.089090 -0.112303 0.002277 -0.122338 -0.061015 -0.161667 -0.116808 0.059534 -0.028978 -0.066179 0.105743 -0.173634 -0.054149 0.009338 0.033708 -0.069777 0.002630 -0.101185 -0.055133 -0.021731 0.090625 -0.053931 -0.004662 -0.077934 -0.013470 0.144185 0.058964 0.059794 -0.046666 -0.024732 -0.072996 -0.053639 -0.041061 -0.093160 0.120970 0.060892 0.054697 0.083538 -0.092544 0.037889 0.053363 0.009686 -0.086108 0.132052 -0.153395 0.077678 -0.027114 -0.093541 0.005131 -0.003470 -0.080492 0.036346 0.004065 -0.077768 0.061206 -0.031598 0.017418 0.067878 -0.038803 0.132133 -0.023698 0.064089 -0.035606 -0.129932 -0.041836 0.079019 -0.119994 -0.021552 -0.010747 -0.072014 -0.003681 -0.013439 -0.088351 0.148059 -0.030088 0.035603 -0.013265 -0.053320 0.116541 0.094516 0.100155 -0.025183 0.017970 -0.016865 0.023002 -0.079792 0.101206 -0.029767 0.083977 -0.077610 -0.060395 -0.101370 -0.006438 -0.062345 0.113412 -0.043314 -0.080349 0.117083 -0.059784 -0.061571 0.004137 -0.080110 0.024207 0.040778 -0.039534 -0.013912 -0.179649 0.016592 0.018676 0.040755 -0.020152 0.009166 0.007928 0.161410 -0.003619 -0.039442 0.060949 -0.032410 -0.016540 0.133446 -0.022282 -0.013191 0.071140 0.020788 -0.141855 -0.066209 -0.070843 0.026967 -0.047949 -0.063742 -0.096716 0.046883 -0.018942 -0.051089 -0.056250 -0.014367 -0.037911 -0.078099 -0.111987 -0.110218 0.035863 0.071718 0.027515 0.028722 0.024724 0.128754 0.024030 -0.087332 -0.053408 -0.100597 0.018952 0.053167 -0.078584 -0.039833 0.064811 -0.122583 -0.037184 0.076554 -0.027601 -0.029473 -0.037537 -0.042704 -0.017604 -0.087380 0.092391 0.011976 0.030148 0.007241 0.084958 0.004221 -0.049334 0.017901 0.035202 -0.060536 -0.001904 -0.011868 0.031097 0.030159 0.043077 -0.036578 -0.003518 0.094128 -0.039011 0.013210 0.112296 -0.129658 -0.061373 0.043922 -0.057504 -0.083023 -0.058188 0.078606 -0.040786 -0.089490 -0.013067 -0.028329 -0.032340 -0.063158 0.003025 -0.013954 0.026300 -0.009195 -0.053356 -0.010984 0.101149 -0.036291 0.049416 -0.025302 -0.125593 -0.020225 -0.077533 0.051690 0.050293 -0.040096 0.084224 0.006607 0.023952 0.087231 0.111101 0.049108 0.096538 -0.000664 -0.044399 -0.002899 0.164414 -0.006271 0.101038 -0.017374 0.058010 -0.015776 0.041423 -0.035095 0.067720 -0.014057 -0.106524 0.095003 0.074874 0.084267 -0.076181 -0.050257 0.103603 0.079500 0.008481 -0.019569 -0.093517 -0.047758 0.027457 0.024237 -0.009268 -0.016313 -0.004407 -0.154741 0.073846 0.035634 0.034258 0.013601 -0.041356 0.036989 0.105524 0.059871 0.080650 0.114979 0.020344 -0.024754 -0.085361 -0.075634 -0.027636 -0.000536 0.107112 0.004783 -0.088723 -0.046665 -0.042962 0.011748 -0.022966 0.099837 -0.018526 0.076205 0.029209 -0.023592 0.079010 0.036022 -0.102045 0.095812 0.026033 -0.029132 -0.030059 -0.055307 0.003311 0.040816 0.127980 -0.038091 0.072849 0.143785 0.159379 0.103463 -0.082627 -0.038305 -0.107514 0.125304 -0.018262 0.001743 -0.028197 -0.006597 0.007778 -0.025869 0.088520 -0.041428 0.010329 0.103973 -0.022717 -0.044968 -0.062926 -0.020021 0.063650 -0.002849 -0.019099 -0.087102 -0.045843 -0.062860 -0.011623 0.059923 0.016707 -0.036912 0.074423 0.085022 -0.041118 -0.052715 0.003783 -0.113202 0.027758 0.037184 0.013980 -0.051772 0.021877 -0.022749 0.016328 0.057908 0.076687
赵卉 0.005746 -0.063917 0.167083 -0.044903 -0.032549 0.053290 -0.029700 -0.046443 0.022076 -0.089130 0.022515 -0.084807 0.099508 0.033455 -0.006605 -0.107274 -0.017869 0.016105 0.030322 0.004911 0.033071 0.082125 0.021089 -0.043498 0.013432 -0.010739 0.027483 0.087384 -0.076429 -0.045226 0.009815 -0.095657 -0.038282 -0.033445 0.075236 0.011682 -0.092373 0.069481 0.036775 0.014384 -0.021661 -0.087203 0.049226 -0.047910 0.025594 -0.058516 0.062823 -0.081133 0.103695 -0.111025 -0.104543 0.021156 -0.029140 0.051322 -0.083714 -0.006057 -0.001788 0.034368 0.057547 0.082436 0.067109 -0.085735 -0.106535 0.003651 -0.118456 -0.061554 -0.159338 -0.113315 0.056376 -0.024893 -0.063561 0.106039 -0.171103 -0.055397 0.012865 0.032243 -0.062349 0.001927 -0.102040 -0.056102 -0.027166 0.089247 -0.053813 -0.003564 -0.075018 -0.014968 0.140872 0.057762 0.058123 -0.046216 -0.028277 -0.067480 -0.047943 -0.040433 -0.092707 0.117327 0.059512 0.056484 0.082557 -0.095845 0.040926 0.048514 0.006414 -0.084330 0.130603 -0.149752 0.071622 -0.031365 -0.092217 0.007179 -0.004512 -0.079400 0.030093 -0.001184 -0.071914 0.059992 -0.032740 0.013037 0.066199 -0.038454 0.124697 -0.023108 0.060772 -0.036218 -0.124090 -0.042427 0.073918 -0.121038 -0.025703 -0.009526 -0.069565 -0.004639 -0.011721 -0.089075 0.139332 -0.024816 0.029376 -0.010982 -0.057426 0.113571 0.089730 0.098564 -0.029886 0.015281 -0.014065 0.022709 -0.079521 0.098472 -0.029153 0.079022 -0.075008 -0.059618 -0.100456 -0.009599 -0.059725 0.112585 -0.047219 -0.075132 0.116920 -0.058984 -0.064965 -0.000335 -0.073730 0.020554 0.040152 -0.036737 -0.008262 -0.175126 0.012181 0.022793 0.040762 -0.022631 0.005124 0.011742 0.154597 -0.007941 -0.041055 0.056310 -0.028965 -0.017687 0.128965 -0.018810 -0.015185 0.067493 0.021650 -0.139517 -0.064165 -0.068375 0.028868 -0.046112 -0.060478 -0.092747 0.043722 -0.022111 -0.053865 -0.056606 -0.014957 -0.032158 -0.079977 -0.113014 -0.105835 0.037359 0.070026 0.029169 0.032756 0.028097 0.122177 0.023674 -0.082020 -0.049856 -0.095140 0.012882 0.048719 -0.077082 -0.037750 0.064402 -0.115706 -0.037704 0.069248 -0.028455 -0.025639 -0.037072 -0.041094 -0.011723 -0.085723 0.089250 0.013365 0.032913 0.005500 0.083520 0.007448 -0.042065 0.015591 0.032348 -0.061075 -0.003699 -0.013440 0.028664 0.029804 0.042376 -0.034337 -0.006786 0.092303 -0.042205 0.010804 0.108788 -0.127778 -0.056785 0.045379 -0.056311 -0.081343 -0.055100 0.080208 -0.041255 -0.088203 -0.013672 -0.027248 -0.034027 -0.059156 0.006939 -0.020120 0.029915 -0.016181 -0.049297 -0.013187 0.099910 -0.037288 0.048474 -0.023934 -0.128320 -0.025153 -0.070823 0.049564 0.047765 -0.037467 0.082037 0.005436 0.019983 0.080359 0.108120 0.050645 0.097065 -0.000158 -0.042832 -0.000218 0.161624 -0.003108 0.095110 -0.017770 0.060569 -0.012771 0.035810 -0.037289 0.070584 -0.012624 -0.104253 0.088180 0.077237 0.086941 -0.071692 -0.051948 0.098107 0.078226 0.013311 -0.019818 -0.092139 -0.048857 0.033804 0.020035 -0.009816 -0.011229 -0.006245 -0.152930 0.070819 0.033126 0.033426 0.010060 -0.040706 0.043094 0.103718 0.054420 0.080235 0.113413 0.017222 -0.027669 -0.084741 -0.075907 -0.021867 0.003148 0.098101 0.006124 -0.090956 -0.044308 -0.043135 0.011168 -0.021267 0.100426 -0.020232 0.072654 0.031654 -0.024586 0.075338 0.035598 -0.103646 0.093998 0.026093 -0.023460 -0.032782 -0.056981 0.005431 0.036446 0.129021 -0.038952 0.073509 0.141858 0.152821 0.096239 -0.079609 -0.035440 -0.101722 0.126576 -0.018790 0.004699 -0.029140 -0.011723 0.008418 -0.023171 0.088102 -0.041570 0.013565 0.101806 -0.025616 -0.038131 -0.063116 -0.022299 0.060963 -0.000865 -0.016992 -0.087261 -0.045766 -0.059557 -0.006611 0.054611 0.019595 -0.035472 0.072370 0.083072 -0.040833 -0.055900 0.005135 -0.113676 0.028783 0.034206 0.013711 -0.048940 0.021415 -0.022501 0.018919 0.061492 0.072951
陆美华 0.007811 -0.066736 0.181042 -0.053444 -0.032116 0.057458 -0.035452 -0.054344 0.023217 -0.094869 0.020874 -0.099988 0.110642 0.036678 -0.016025 -0.128163 -0.017152 0.017704 0.028417 0.004349 0.034906 0.097820 0.020741 -0.049052 0.017484 -0.017835 0.027502 0.094488 -0.084438 -0.049690 0.003278 -0.101222 -0.040704 -0.027434 0.088801 0.009119 -0.106047 0.090188 0.045480 0.010273 -0.022947 -0.106417 0.054373 -0.058766 0.032941 -0.063968 0.072015 -0.090515 0.117750 -0.123772 -0.121664 0.020875 -0.037471 0.048379 -0.091379 0.003141 -0.000277 0.039735 0.057323 0.094319 0.076929 -0.099233 -0.123379 -0.002664 -0.138501 -0.069704 -0.174525 -0.131407 0.065781 -0.029917 -0.073547 0.112890 -0.190665 -0.052251 0.004110 0.035671 -0.077260 0.000764 -0.109372 -0.060694 -0.026691 0.097449 -0.055524 -0.008504 -0.084533 -0.014560 0.160482 0.067267 0.063619 -0.050472 -0.026173 -0.083651 -0.063465 -0.046651 -0.108708 0.133261 0.069826 0.058263 0.096228 -0.105194 0.043547 0.061685 0.012039 -0.096220 0.147534 -0.167370 0.085017 -0.027727 -0.104895 0.008144 -0.001001 -0.092190 0.040638 0.000913 -0.083144 0.064225 -0.034714 0.025712 0.073745 -0.048192 0.146472 -0.027098 0.074307 -0.040082 -0.143436 -0.049198 0.087845 -0.130585 -0.021099 -0.010132 -0.079727 0.000437 -0.009922 -0.095710 0.161852 -0.035536 0.039956 -0.019594 -0.055983 0.132302 0.105125 0.111820 -0.023506 0.020634 -0.024182 0.025687 -0.091247 0.106203 -0.033779 0.092034 -0.083988 -0.066877 -0.108508 -0.002792 -0.072139 0.129478 -0.048160 -0.088195 0.125176 -0.064624 -0.059706 0.014816 -0.088844 0.027973 0.042922 -0.046735 -0.016938 -0.194040 0.020458 0.020757 0.036316 -0.016121 0.007172 0.006170 0.177606 -0.006961 -0.045948 0.063260 -0.032018 -0.019731 0.146178 -0.025045 -0.015002 0.076628 0.019395 -0.151353 -0.074587 -0.077169 0.031821 -0.058023 -0.076512 -0.112086 0.055197 -0.022597 -0.056745 -0.064419 -0.015374 -0.045207 -0.088848 -0.121590 -0.126165 0.045015 0.074713 0.034750 0.024661 0.025378 0.139444 0.030332 -0.098098 -0.053780 -0.113333 0.024882 0.055137 -0.088284 -0.047427 0.068437 -0.141126 -0.037123 0.087669 -0.026766 -0.031630 -0.048560 -0.048036 -0.023736 -0.099703 0.102864 0.012349 0.030730 0.009728 0.092812 -0.001314 -0.056185 0.018638 0.037921 -0.069505 -0.003089 -0.010675 0.037723 0.035256 0.052142 -0.038070 0.001352 0.105813 -0.042778 0.009459 0.126033 -0.146572 -0.069270 0.053542 -0.066603 -0.093948 -0.068968 0.088914 -0.040313 -0.102373 -0.015568 -0.034943 -0.037640 -0.072376 0.000590 -0.012271 0.030010 -0.010412 -0.055299 -0.010060 0.111782 -0.038637 0.058310 -0.028124 -0.135317 -0.019125 -0.087974 0.053427 0.058868 -0.051608 0.094057 0.012163 0.025266 0.100227 0.119061 0.058901 0.107181 -0.000607 -0.047912 -0.001352 0.179860 -0.011036 0.116343 -0.020207 0.070462 -0.014630 0.054687 -0.037340 0.073696 -0.017097 -0.123131 0.108657 0.086123 0.094498 -0.088292 -0.056006 0.115501 0.090342 0.009707 -0.023396 -0.106227 -0.056722 0.025692 0.031457 -0.012362 -0.015794 -0.005140 -0.174361 0.081155 0.048201 0.039511 0.014522 -0.046448 0.036540 0.123525 0.064092 0.091577 0.127724 0.027896 -0.023627 -0.092977 -0.084730 -0.037222 0.001918 0.119511 0.003943 -0.096540 -0.054036 -0.048969 0.010231 -0.023776 0.114459 -0.017595 0.087983 0.034061 -0.031071 0.086669 0.040582 -0.110533 0.103087 0.033711 -0.034240 -0.028997 -0.058616 0.004648 0.052116 0.136449 -0.044106 0.081584 0.157425 0.176187 0.113858 -0.088683 -0.040305 -0.121643 0.139606 -0.020142 0.005589 -0.029640 -0.008735 0.012003 -0.026897 0.093152 -0.047957 0.010990 0.113975 -0.025827 -0.049794 -0.066835 -0.019522 0.065956 -0.000076 -0.015431 -0.095823 -0.049575 -0.072680 -0.015257 0.065539 0.016662 -0.038514 0.082122 0.096566 -0.048727 -0.059692 0.002884 -0.124702 0.036033 0.045072 0.017408 -0.059374 0.022446 -0.025701 0.019613 0.066269 0.086230
刘静 0.006232 -0.078124 0.185242 -0.048189 -0.032581 0.059281 -0.030877 -0.049090 0.028484 -0.107417 0.022583 -0.094656 0.119625 0.039115 -0.009859 -0.124775 -0.021902 0.011753 0.040815 0.005396 0.039111 0.094602 0.024658 -0.050435 0.012507 -0.015414 0.027742 0.097629 -0.083082 -0.045470 0.013459 -0.108336 -0.041806 -0.034798 0.082867 0.011979 -0.102387 0.082209 0.043019 0.013744 -0.023815 -0.103776 0.054344 -0.061574 0.030998 -0.067329 0.070495 -0.084525 0.115160 -0.123686 -0.119346 0.025287 -0.034157 0.054162 -0.093267 -0.002092 -0.004471 0.039518 0.058945 0.097526 0.071398 -0.097409 -0.122849 0.004147 -0.130630 -0.062681 -0.173313 -0.129185 0.067643 -0.035121 -0.075484 0.116279 -0.191613 -0.061030 0.010628 0.037236 -0.076640 0.002662 -0.112510 -0.054854 -0.021428 0.103019 -0.056412 -0.000036 -0.082286 -0.016577 0.159773 0.065303 0.064330 -0.051030 -0.025798 -0.075027 -0.058479 -0.043146 -0.103448 0.133758 0.070636 0.060341 0.092897 -0.101875 0.043359 0.059988 0.013818 -0.089917 0.145585 -0.169250 0.089171 -0.032956 -0.103792 0.005933 -0.003695 -0.087894 0.038711 0.005045 -0.082439 0.066119 -0.038491 0.019267 0.076432 -0.041827 0.141387 -0.025617 0.070701 -0.040879 -0.139373 -0.049017 0.085202 -0.130146 -0.025596 -0.008507 -0.077857 -0.002673 -0.017336 -0.096127 0.159654 -0.032649 0.038088 -0.017194 -0.058684 0.130123 0.104520 0.109801 -0.033909 0.019093 -0.017201 0.019882 -0.088717 0.109442 -0.030441 0.093545 -0.085288 -0.066029 -0.109803 -0.007769 -0.066352 0.125901 -0.050604 -0.086198 0.130048 -0.066634 -0.067403 0.003531 -0.086632 0.025158 0.043847 -0.041757 -0.015551 -0.200226 0.013106 0.019610 0.046260 -0.024357 0.006870 0.012512 0.176662 -0.007550 -0.041145 0.069128 -0.033894 -0.018083 0.147626 -0.023192 -0.012246 0.077718 0.022650 -0.156951 -0.072799 -0.076481 0.031272 -0.053437 -0.067000 -0.106569 0.048407 -0.021609 -0.058268 -0.064472 -0.018801 -0.042374 -0.086611 -0.125683 -0.122561 0.042173 0.077311 0.030512 0.032796 0.027224 0.140846 0.026003 -0.092886 -0.056516 -0.104010 0.018303 0.055473 -0.087038 -0.045623 0.072450 -0.132648 -0.043528 0.083289 -0.031204 -0.033415 -0.041093 -0.047565 -0.018795 -0.096331 0.100542 0.016778 0.037477 0.009842 0.093968 0.002971 -0.054503 0.017237 0.035596 -0.069236 -0.000389 -0.013428 0.034535 0.035611 0.049990 -0.041633 -0.004460 0.101415 -0.045525 0.015717 0.124552 -0.141560 -0.069256 0.050853 -0.065000 -0.094276 -0.064804 0.091955 -0.042357 -0.099624 -0.016103 -0.033466 -0.037394 -0.068108 0.001720 -0.014474 0.029373 -0.014082 -0.059763 -0.011595 0.111645 -0.038095 0.048348 -0.027133 -0.142040 -0.023478 -0.079449 0.057306 0.055614 -0.046104 0.093229 0.004772 0.027653 0.092247 0.125129 0.057602 0.106168 0.000986 -0.052133 -0.002446 0.180571 -0.007406 0.109327 -0.018567 0.063383 -0.016273 0.044467 -0.039451 0.074477 -0.016195 -0.113578 0.103593 0.080151 0.091822 -0.080978 -0.054350 0.112858 0.083994 0.013214 -0.021736 -0.105612 -0.053652 0.032999 0.024381 -0.010312 -0.017001 -0.008195 -0.169285 0.083533 0.039410 0.039262 0.014878 -0.048831 0.040181 0.112822 0.062830 0.090917 0.126628 0.022048 -0.026550 -0.090832 -0.085048 -0.027347 -0.000115 0.117541 0.002481 -0.101835 -0.051761 -0.046435 0.008595 -0.021209 0.110997 -0.022020 0.079819 0.035263 -0.027323 0.087439 0.039636 -0.112372 0.104090 0.028621 -0.025347 -0.035377 -0.064055 -0.000232 0.042109 0.140621 -0.043134 0.081975 0.154356 0.175906 0.112627 -0.091666 -0.038592 -0.117796 0.138543 -0.018314 0.006637 -0.034676 -0.009852 0.011335 -0.027494 0.097684 -0.041149 0.011356 0.111626 -0.022821 -0.045937 -0.067956 -0.022624 0.070530 -0.002812 -0.022341 -0.093872 -0.051206 -0.068552 -0.017160 0.064120 0.018851 -0.040435 0.084561 0.092168 -0.045413 -0.061838 0.007234 -0.126192 0.028451 0.041615 0.014115 -0.056572 0.022118 -0.024257 0.019350 0.069643 0.086149
周小晴 0.009422 -0.065780 0.167584 -0.046250 -0.030604 0.052742 -0.031929 -0.048902 0.023639 -0.090092 0.020799 -0.087410 0.103274 0.032267 -0.009345 -0.115580 -0.018351 0.015591 0.030710 0.004929 0.033849 0.084880 0.018675 -0.044863 0.014072 -0.017382 0.025403 0.084953 -0.077611 -0.044307 0.005241 -0.095455 -0.034923 -0.027220 0.077176 0.009612 -0.094135 0.076622 0.038882 0.008739 -0.020488 -0.092789 0.047527 -0.051916 0.027064 -0.059780 0.063657 -0.079209 0.103115 -0.107532 -0.105809 0.019515 -0.033053 0.044740 -0.082321 0.001340 0.000148 0.034046 0.054076 0.083258 0.064860 -0.086139 -0.108481 -0.001651 -0.118814 -0.060067 -0.156672 -0.115502 0.060045 -0.027180 -0.065979 0.100211 -0.168834 -0.049417 0.006892 0.030703 -0.067239 0.001023 -0.096571 -0.054235 -0.021891 0.086103 -0.050688 -0.006372 -0.075500 -0.013329 0.141230 0.057816 0.057602 -0.044945 -0.024482 -0.072435 -0.052019 -0.038462 -0.094138 0.115013 0.059288 0.051920 0.080819 -0.089357 0.036652 0.051346 0.009601 -0.083154 0.128637 -0.148112 0.075261 -0.026188 -0.090989 0.005655 -0.002319 -0.078420 0.034366 0.000900 -0.073783 0.057918 -0.031171 0.018808 0.064050 -0.039455 0.127654 -0.023114 0.062975 -0.036290 -0.125772 -0.041167 0.075215 -0.115631 -0.018388 -0.009279 -0.070558 -0.001184 -0.011210 -0.084818 0.143973 -0.029632 0.033869 -0.013736 -0.050673 0.116257 0.091860 0.098737 -0.024671 0.016264 -0.017538 0.020262 -0.077658 0.097687 -0.029725 0.082341 -0.075612 -0.059400 -0.097835 -0.003543 -0.059677 0.112922 -0.044814 -0.078510 0.111912 -0.056566 -0.058308 0.006828 -0.077959 0.023857 0.039086 -0.038035 -0.014493 -0.174896 0.017455 0.017067 0.037584 -0.016136 0.008948 0.007849 0.157392 -0.005017 -0.039347 0.056699 -0.030307 -0.017932 0.128817 -0.020173 -0.012311 0.068264 0.018566 -0.136110 -0.064983 -0.068306 0.027053 -0.048465 -0.065236 -0.096026 0.046759 -0.018536 -0.048818 -0.056915 -0.015061 -0.037258 -0.076079 -0.107225 -0.108956 0.036007 0.068534 0.027214 0.023845 0.024390 0.123396 0.024573 -0.085851 -0.049740 -0.098029 0.018883 0.050134 -0.074862 -0.039163 0.061416 -0.120546 -0.034678 0.075896 -0.024736 -0.029781 -0.040153 -0.041585 -0.017410 -0.085146 0.088889 0.011470 0.028079 0.007827 0.082857 0.002362 -0.048037 0.017450 0.033590 -0.062588 -0.003839 -0.010975 0.030056 0.029838 0.042187 -0.036194 -0.002945 0.094827 -0.036808 0.010394 0.107906 -0.127560 -0.060115 0.045397 -0.056850 -0.080782 -0.058863 0.076075 -0.037570 -0.086899 -0.012425 -0.030036 -0.033204 -0.062476 0.004043 -0.014865 0.027816 -0.008630 -0.049591 -0.010282 0.097339 -0.034672 0.048657 -0.024127 -0.121294 -0.019706 -0.076010 0.048453 0.048788 -0.042905 0.082286 0.008745 0.023342 0.087145 0.107154 0.049440 0.093283 -0.000601 -0.042204 -0.001230 0.159671 -0.006239 0.098820 -0.016445 0.059441 -0.011676 0.042794 -0.034667 0.065607 -0.014729 -0.103230 0.094907 0.073389 0.084020 -0.072963 -0.047486 0.101440 0.076319 0.008776 -0.020700 -0.090623 -0.046087 0.026273 0.024928 -0.009918 -0.017103 -0.005085 -0.152162 0.071913 0.037476 0.034215 0.013109 -0.042873 0.036036 0.105212 0.058976 0.079183 0.111899 0.021896 -0.021881 -0.081777 -0.073552 -0.028210 0.001512 0.102169 0.004618 -0.086735 -0.046463 -0.042557 0.011442 -0.022376 0.099192 -0.017436 0.075477 0.027945 -0.025924 0.077110 0.034154 -0.097893 0.092368 0.028196 -0.027028 -0.027602 -0.054055 0.004098 0.040389 0.121378 -0.036970 0.070090 0.138447 0.153930 0.098911 -0.080417 -0.036058 -0.104544 0.123245 -0.017439 0.004643 -0.026153 -0.005792 0.009565 -0.023721 0.085210 -0.039957 0.010851 0.101125 -0.023695 -0.042807 -0.059889 -0.020479 0.058694 -0.002506 -0.014006 -0.085983 -0.044513 -0.062413 -0.012234 0.057384 0.016788 -0.033892 0.074062 0.081916 -0.041285 -0.052861 0.003164 -0.110226 0.029579 0.039380 0.013327 -0.050788 0.022121 -0.021360 0.016944 0.058380 0.075904
何小红 0.006549 -0.077345 0.184410 -0.045359 -0.033646 0.058246 -0.028184 -0.049419 0.030848 -0.108092 0.024665 -0.088985 0.119260 0.037153 -0.004390 -0.122338 -0.020812 0.011644 0.043640 0.004870 0.037576 0.089174 0.024699 -0.054168 0.012056 -0.011151 0.029436 0.095695 -0.080676 -0.048763 0.013121 -0.110080 -0.040226 -0.036787 0.082442 0.011408 -0.100933 0.076584 0.040776 0.015861 -0.023135 -0.100742 0.052537 -0.060390 0.030420 -0.066957 0.071571 -0.084139 0.116846 -0.120850 -0.119295 0.024634 -0.032311 0.057428 -0.094264 -0.006151 -0.004312 0.038624 0.059973 0.097425 0.070923 -0.093197 -0.121046 0.006282 -0.126279 -0.062195 -0.175258 -0.126121 0.066608 -0.035721 -0.074413 0.119155 -0.192378 -0.063454 0.014033 0.041593 -0.074305 0.004204 -0.114379 -0.055766 -0.025585 0.104372 -0.058089 0.002854 -0.080363 -0.020375 0.156092 0.060975 0.064536 -0.049074 -0.026456 -0.075785 -0.055357 -0.042619 -0.099665 0.132180 0.067735 0.060742 0.092295 -0.104537 0.046093 0.059116 0.010891 -0.087774 0.142059 -0.168977 0.085683 -0.035211 -0.102681 0.005254 -0.005153 -0.086442 0.038596 0.006745 -0.082741 0.070762 -0.036884 0.017616 0.076073 -0.041255 0.139548 -0.023195 0.067277 -0.037613 -0.137224 -0.049250 0.081651 -0.131280 -0.031302 -0.008722 -0.074677 -0.003904 -0.019061 -0.098974 0.160924 -0.029927 0.036911 -0.016553 -0.061906 0.127884 0.101998 0.106788 -0.036448 0.020721 -0.014800 0.021677 -0.087593 0.109264 -0.031676 0.091527 -0.081712 -0.067315 -0.114238 -0.010650 -0.064694 0.124711 -0.050130 -0.084039 0.133677 -0.067116 -0.074538 -0.000359 -0.086025 0.021784 0.043788 -0.038404 -0.012915 -0.200197 0.012227 0.021879 0.050488 -0.028534 0.006114 0.014431 0.178160 -0.005728 -0.040338 0.070739 -0.036100 -0.017550 0.147285 -0.022631 -0.012673 0.080954 0.029732 -0.156202 -0.069394 -0.072561 0.032243 -0.047187 -0.065095 -0.104921 0.042157 -0.025711 -0.059521 -0.062716 -0.017280 -0.038767 -0.089020 -0.127654 -0.123466 0.041570 0.080462 0.027219 0.037163 0.029609 0.139970 0.022331 -0.089147 -0.059832 -0.102373 0.014193 0.057150 -0.083271 -0.045642 0.074530 -0.128868 -0.044139 0.078789 -0.033398 -0.031680 -0.038788 -0.044829 -0.015473 -0.096348 0.098576 0.019046 0.038749 0.011147 0.091701 0.008350 -0.051707 0.019031 0.034209 -0.069328 0.001398 -0.017671 0.029870 0.035901 0.045715 -0.041692 -0.008588 0.100931 -0.045875 0.018947 0.122930 -0.143010 -0.066448 0.049020 -0.060606 -0.093507 -0.061447 0.091631 -0.046877 -0.097450 -0.017333 -0.032847 -0.038549 -0.066633 0.006122 -0.018544 0.031585 -0.016259 -0.060448 -0.010837 0.110315 -0.040558 0.044806 -0.025389 -0.146795 -0.029398 -0.076140 0.056283 0.050877 -0.043203 0.090119 0.002494 0.025659 0.090400 0.127191 0.056493 0.107020 0.002550 -0.052420 0.000947 0.182314 -0.004537 0.108189 -0.018486 0.062392 -0.020186 0.040655 -0.039639 0.076328 -0.013485 -0.112655 0.100171 0.078428 0.091611 -0.077993 -0.055894 0.113174 0.083667 0.015679 -0.020640 -0.103627 -0.052470 0.037342 0.023985 -0.010395 -0.014749 -0.007322 -0.167569 0.081578 0.035621 0.039044 0.013712 -0.050062 0.048067 0.111576 0.062800 0.089861 0.127380 0.018648 -0.027251 -0.090493 -0.084733 -0.024811 0.000112 0.116810 0.004257 -0.101826 -0.049959 -0.043219 0.010078 -0.023898 0.108176 -0.023529 0.078253 0.035477 -0.023464 0.083894 0.036635 -0.114770 0.106548 0.026026 -0.025440 -0.037761 -0.065465 -0.001294 0.037256 0.142638 -0.042599 0.082359 0.158120 0.176674 0.112777 -0.092247 -0.042301 -0.115910 0.138611 -0.017598 0.004776 -0.032996 -0.010065 0.008472 -0.029005 0.099552 -0.043724 0.015468 0.113031 -0.024714 -0.044287 -0.070609 -0.022139 0.071896 0.000236 -0.025091 -0.094759 -0.052399 -0.068396 -0.011555 0.062073 0.020545 -0.037464 0.084579 0.091886 -0.048107 -0.062231 0.007170 -0.126751 0.025905 0.039938 0.013522 -0.052052 0.025088 -0.021673 0.017689 0.067469 0.084866
顾梅青 0.007930 -0.072842 0.186569 -0.051632 -0.031420 0.058266 -0.035224 -0.054662 0.025153 -0.099393 0.020963 -0.097804 0.114647 0.037902 -0.011236 -0.126457 -0.018985 0.018192 0.032993 0.003909 0.037015 0.095381 0.022395 -0.051753 0.016553 -0.016103 0.027483 0.094929 -0.084628 -0.051142 0.008900 -0.107441 -0.041243 -0.031834 0.087681 0.008633 -0.105078 0.085016 0.044019 0.010143 -0.023806 -0.103030 0.054808 -0.061938 0.031001 -0.066050 0.070496 -0.087569 0.118504 -0.122839 -0.121334 0.022314 -0.034867 0.052888 -0.092278 -0.000294 0.000217 0.039577 0.059336 0.094876 0.076255 -0.097672 -0.122413 0.001051 -0.134661 -0.067490 -0.174497 -0.132512 0.067594 -0.032660 -0.074779 0.114514 -0.189288 -0.053760 0.007051 0.034856 -0.075590 -0.000909 -0.112426 -0.060603 -0.025838 0.099725 -0.056566 -0.006771 -0.084227 -0.016761 0.160071 0.066591 0.065011 -0.052034 -0.026651 -0.082202 -0.062130 -0.046472 -0.106233 0.134327 0.067985 0.061401 0.092948 -0.103164 0.043817 0.061859 0.013112 -0.093875 0.145278 -0.168329 0.086701 -0.028713 -0.102746 0.005626 -0.002647 -0.088444 0.040800 0.002494 -0.083920 0.066070 -0.035946 0.021029 0.074445 -0.046699 0.144553 -0.026015 0.073296 -0.040214 -0.142904 -0.047434 0.087325 -0.131468 -0.021961 -0.008687 -0.079243 -0.000742 -0.012247 -0.098489 0.160801 -0.035019 0.038436 -0.019873 -0.056981 0.132349 0.104457 0.112628 -0.028993 0.021670 -0.021821 0.025452 -0.090262 0.106900 -0.033683 0.093690 -0.085055 -0.069157 -0.110097 -0.003855 -0.069572 0.128310 -0.051188 -0.087374 0.127904 -0.066657 -0.065971 0.009135 -0.089658 0.027377 0.042665 -0.042512 -0.015197 -0.195621 0.016810 0.019391 0.041937 -0.019335 0.007272 0.007070 0.176819 -0.005403 -0.043309 0.066838 -0.032975 -0.021639 0.144874 -0.024655 -0.013853 0.078086 0.021844 -0.153389 -0.072913 -0.076298 0.030896 -0.053267 -0.073831 -0.109804 0.051939 -0.023741 -0.057880 -0.065156 -0.014725 -0.043193 -0.087575 -0.121581 -0.125775 0.041983 0.074865 0.033253 0.029121 0.028980 0.139633 0.028318 -0.094870 -0.054990 -0.108062 0.021981 0.053756 -0.085799 -0.044253 0.070737 -0.137402 -0.037982 0.085307 -0.028116 -0.032216 -0.044485 -0.044867 -0.021634 -0.099245 0.100813 0.012853 0.033440 0.009588 0.092176 0.001045 -0.055200 0.019961 0.036548 -0.067531 -0.002534 -0.010761 0.036739 0.033317 0.050818 -0.039879 -0.002364 0.104852 -0.042688 0.010362 0.122056 -0.144684 -0.069909 0.053068 -0.065179 -0.094717 -0.064854 0.089212 -0.042753 -0.098680 -0.015571 -0.034444 -0.036998 -0.071563 0.004854 -0.014558 0.029253 -0.010035 -0.056104 -0.010330 0.112978 -0.038618 0.053597 -0.027191 -0.139645 -0.022125 -0.084770 0.055523 0.057375 -0.049522 0.092336 0.010443 0.024509 0.095874 0.120743 0.057656 0.106635 -0.002552 -0.048148 0.000012 0.180949 -0.007121 0.111684 -0.018610 0.066109 -0.016296 0.049991 -0.039633 0.075504 -0.017093 -0.119779 0.108100 0.084436 0.092374 -0.083707 -0.055006 0.113044 0.087680 0.009059 -0.022186 -0.105979 -0.055042 0.028851 0.029714 -0.009574 -0.016092 -0.005101 -0.173572 0.081430 0.042713 0.039861 0.015801 -0.049357 0.039078 0.118195 0.064624 0.090562 0.127472 0.026406 -0.026770 -0.091952 -0.086057 -0.033172 0.001201 0.118598 0.002679 -0.099766 -0.052412 -0.048139 0.011854 -0.024878 0.112863 -0.019980 0.084521 0.034416 -0.030122 0.086213 0.037576 -0.112554 0.103753 0.031863 -0.032129 -0.031360 -0.059532 0.002086 0.046420 0.138548 -0.042955 0.082000 0.157300 0.174612 0.111550 -0.090214 -0.041726 -0.120588 0.139881 -0.018310 0.005909 -0.028954 -0.007708 0.013027 -0.027469 0.095290 -0.047139 0.010860 0.113624 -0.025609 -0.049180 -0.067382 -0.021448 0.067537 -0.000723 -0.018678 -0.097300 -0.049005 -0.070848 -0.015264 0.065356 0.018790 -0.040625 0.083337 0.095438 -0.048907 -0.061369 0.005258 -0.123616 0.032894 0.043307 0.018396 -0.057798 0.023893 -0.023358 0.016504 0.065606 0.085597
杨丽 0.007249 -0.068127 0.165355 -0.043183 -0.028843 0.051457 -0.027774 -0.044537 0.024889 -0.094017 0.021748 -0.084731 0.104556 0.034952 -0.006710 -0.113154 -0.019254 0.012495 0.035212 0.005555 0.034517 0.081864 0.021274 -0.046719 0.012430 -0.012890 0.026461 0.086598 -0.074817 -0.044397 0.010829 -0.097462 -0.036786 -0.031427 0.074677 0.010340 -0.092039 0.071849 0.037791 0.011300 -0.020849 -0.091556 0.049528 -0.052823 0.027151 -0.060568 0.064393 -0.077508 0.105332 -0.109420 -0.108611 0.019665 -0.031596 0.048404 -0.084044 -0.001660 -0.003658 0.033793 0.054062 0.087377 0.063458 -0.086729 -0.110293 0.004209 -0.115857 -0.057232 -0.156694 -0.114263 0.060294 -0.028738 -0.067069 0.104887 -0.171359 -0.052837 0.008749 0.033502 -0.066752 0.001566 -0.101707 -0.051059 -0.022262 0.092154 -0.051186 -0.002143 -0.074986 -0.015915 0.140510 0.057806 0.058267 -0.045001 -0.023938 -0.067948 -0.051063 -0.037976 -0.092582 0.118355 0.059977 0.055153 0.084312 -0.093279 0.039676 0.053252 0.011098 -0.081221 0.128528 -0.150915 0.075809 -0.029051 -0.093536 0.006679 -0.004254 -0.078390 0.034490 0.004013 -0.072244 0.060329 -0.033915 0.018169 0.068583 -0.038084 0.127030 -0.022893 0.063127 -0.035994 -0.123178 -0.043328 0.075816 -0.117527 -0.024901 -0.008507 -0.069647 -0.001422 -0.014164 -0.087306 0.142084 -0.028000 0.031877 -0.014097 -0.054602 0.115565 0.092610 0.097370 -0.028723 0.018285 -0.014997 0.018975 -0.079449 0.097438 -0.027565 0.083129 -0.074086 -0.059449 -0.098966 -0.006647 -0.059362 0.112653 -0.046267 -0.076786 0.115023 -0.059618 -0.061100 0.005100 -0.076476 0.022867 0.039489 -0.037789 -0.011878 -0.176857 0.013331 0.017610 0.040045 -0.021822 0.007438 0.011875 0.158646 -0.004390 -0.037540 0.061421 -0.029886 -0.016906 0.129802 -0.020341 -0.012419 0.070580 0.022630 -0.139475 -0.064593 -0.066984 0.028326 -0.045451 -0.061275 -0.095023 0.042286 -0.020299 -0.051064 -0.055744 -0.016206 -0.036301 -0.077871 -0.110932 -0.110166 0.037498 0.067867 0.027134 0.029804 0.026205 0.124119 0.022531 -0.083245 -0.050431 -0.093856 0.015721 0.050351 -0.076364 -0.040096 0.065330 -0.118620 -0.038541 0.073299 -0.028185 -0.028170 -0.036281 -0.041344 -0.014727 -0.086824 0.089385 0.014422 0.031749 0.008372 0.083999 0.003354 -0.047470 0.016075 0.033286 -0.061217 -0.000934 -0.013778 0.029662 0.031991 0.043570 -0.036991 -0.005392 0.091734 -0.040592 0.013631 0.108728 -0.127841 -0.060070 0.045716 -0.056709 -0.084125 -0.058359 0.079584 -0.038953 -0.087216 -0.014881 -0.029860 -0.034374 -0.061882 0.002511 -0.014405 0.026472 -0.011329 -0.052475 -0.011640 0.098688 -0.034826 0.043773 -0.023499 -0.127600 -0.023951 -0.072388 0.050760 0.047760 -0.040432 0.081757 0.004535 0.023484 0.082408 0.110352 0.050141 0.095544 -0.000140 -0.044267 -0.000752 0.160713 -0.006774 0.098990 -0.017677 0.058127 -0.014537 0.040700 -0.034515 0.067961 -0.014263 -0.101405 0.091910 0.071560 0.082446 -0.072024 -0.047687 0.102167 0.077154 0.011386 -0.018242 -0.092661 -0.047804 0.030954 0.022718 -0.008465 -0.014326 -0.006186 -0.152022 0.073220 0.036070 0.035504 0.012872 -0.044204 0.037643 0.102000 0.056005 0.079592 0.112236 0.019110 -0.023178 -0.082720 -0.076075 -0.024090 -0.000045 0.103722 0.004009 -0.090177 -0.047024 -0.039937 0.009502 -0.021371 0.097750 -0.018411 0.071601 0.029772 -0.022597 0.076678 0.033559 -0.101422 0.094216 0.024148 -0.023683 -0.032101 -0.056802 -0.000518 0.036411 0.125923 -0.039187 0.073158 0.139063 0.157127 0.101178 -0.082562 -0.036609 -0.103560 0.123873 -0.017252 0.004414 -0.028621 -0.008837 0.007572 -0.023686 0.085201 -0.038865 0.011803 0.099906 -0.021337 -0.040301 -0.061627 -0.019518 0.061865 -0.000659 -0.020268 -0.084848 -0.044949 -0.061161 -0.012846 0.057619 0.016396 -0.034428 0.074091 0.083072 -0.043257 -0.055469 0.005418 -0.110418 0.025536 0.036855 0.012856 -0.048574 0.021435 -0.020277 0.015428 0.061138 0.076964
姜缨 0.007969 -0.078523 0.191885 -0.047257 -0.033164 0.063352 -0.029668 -0.052391 0.030964 -0.108584 0.024669 -0.095747 0.122557 0.041284 -0.007059 -0.130001 -0.022005 0.012861 0.041126 0.005832 0.039958 0.094368 0.024726 -0.056661 0.013970 -0.012281 0.031679 0.100545 -0.085223 -0.052401 0.010346 -0.112725 -0.043102 -0.038069 0.086985 0.012995 -0.107602 0.082885 0.041613 0.016606 -0.024914 -0.105749 0.054467 -0.062875 0.031003 -0.069124 0.072611 -0.088870 0.123364 -0.126981 -0.126759 0.025089 -0.036259 0.059831 -0.099161 -0.004004 -0.005347 0.042709 0.063973 0.099939 0.075609 -0.098664 -0.127786 0.006191 -0.134857 -0.067050 -0.179938 -0.134403 0.067992 -0.036229 -0.075433 0.122876 -0.200130 -0.062387 0.011817 0.042322 -0.077949 0.001590 -0.118231 -0.061663 -0.027457 0.106323 -0.056888 -0.000842 -0.086205 -0.019300 0.165832 0.066349 0.067353 -0.052557 -0.027246 -0.079960 -0.060242 -0.046619 -0.107243 0.139231 0.068953 0.064361 0.097678 -0.108498 0.045113 0.064229 0.011983 -0.095944 0.150464 -0.173955 0.087927 -0.034490 -0.107591 0.007121 -0.002530 -0.090021 0.038838 0.004035 -0.086936 0.072224 -0.039017 0.019498 0.080226 -0.044651 0.149606 -0.025853 0.071910 -0.040008 -0.146129 -0.051936 0.088421 -0.137335 -0.029729 -0.009644 -0.079999 -0.003260 -0.015864 -0.103164 0.167555 -0.032433 0.036505 -0.019473 -0.063986 0.134675 0.108343 0.113552 -0.035581 0.023026 -0.016158 0.025715 -0.092044 0.112964 -0.031722 0.097321 -0.085212 -0.070636 -0.115934 -0.011352 -0.069939 0.131740 -0.050767 -0.089565 0.136829 -0.069488 -0.073052 0.004493 -0.091410 0.026614 0.042948 -0.041770 -0.014264 -0.206335 0.014368 0.021619 0.048487 -0.025678 0.007820 0.012829 0.185896 -0.005419 -0.042899 0.070719 -0.034770 -0.018726 0.151857 -0.024363 -0.014026 0.082574 0.028311 -0.159074 -0.074611 -0.077834 0.034117 -0.051367 -0.071542 -0.111154 0.047947 -0.025809 -0.061541 -0.066127 -0.016918 -0.042882 -0.091917 -0.130346 -0.129127 0.042305 0.080652 0.031404 0.036285 0.030986 0.145889 0.026388 -0.094886 -0.060626 -0.109636 0.016767 0.058533 -0.091026 -0.047891 0.077142 -0.136777 -0.042381 0.083673 -0.032642 -0.030954 -0.044349 -0.046615 -0.018469 -0.100404 0.103608 0.019698 0.037019 0.008993 0.094727 0.005267 -0.054439 0.020118 0.037254 -0.071374 0.000428 -0.013799 0.035055 0.036462 0.049615 -0.042944 -0.007857 0.109039 -0.046777 0.016886 0.129202 -0.149177 -0.068627 0.054383 -0.067078 -0.096622 -0.066019 0.093308 -0.044718 -0.100988 -0.016851 -0.032158 -0.040536 -0.070716 0.007449 -0.017268 0.030097 -0.017081 -0.061073 -0.011594 0.115813 -0.041341 0.050764 -0.026070 -0.150827 -0.029253 -0.082446 0.057632 0.056342 -0.046789 0.096590 0.006688 0.026536 0.096806 0.128014 0.059626 0.110155 -0.000139 -0.052593 0.000809 0.189402 -0.007941 0.113260 -0.021064 0.066188 -0.018591 0.046712 -0.042028 0.079692 -0.014237 -0.118520 0.108819 0.083801 0.095154 -0.085266 -0.057970 0.119009 0.089456 0.013351 -0.018995 -0.109197 -0.056104 0.037461 0.025644 -0.009960 -0.016599 -0.007025 -0.178928 0.085338 0.042956 0.040683 0.012544 -0.052098 0.045314 0.117949 0.065715 0.092649 0.131040 0.022239 -0.030316 -0.094547 -0.091407 -0.030131 0.001332 0.122295 0.002937 -0.105090 -0.053045 -0.046824 0.008966 -0.024813 0.114936 -0.022960 0.083072 0.037366 -0.025910 0.089619 0.038838 -0.115923 0.111365 0.029052 -0.028313 -0.035546 -0.067610 -0.000641 0.042060 0.147315 -0.045079 0.083841 0.164172 0.184731 0.115988 -0.093869 -0.044023 -0.122393 0.144136 -0.019681 0.003654 -0.033927 -0.009750 0.010137 -0.029052 0.101088 -0.047565 0.013306 0.115915 -0.024874 -0.047331 -0.074000 -0.021545 0.071468 0.000502 -0.025126 -0.100460 -0.053951 -0.070556 -0.015654 0.066006 0.021444 -0.041334 0.088445 0.097050 -0.051534 -0.063953 0.006696 -0.131199 0.028078 0.041873 0.015870 -0.055603 0.024126 -0.024123 0.017248 0.070251 0.089687
张颖 0.007305 -0.110682 0.264877 -0.067567 -0.046035 0.086379 -0.041805 -0.071050 0.040661 -0.151817 0.031183 -0.128910 0.172372 0.051290 -0.010721 -0.179074 -0.027925 0.013572 0.057330 0.010750 0.053845 0.134567 0.036295 -0.077599 0.019177 -0.019807 0.044088 0.140855 -0.115603 -0.064779 0.020230 -0.155093 -0.058973 -0.050916 0.118455 0.013236 -0.143066 0.115921 0.056993 0.023381 -0.032830 -0.150057 0.079788 -0.086098 0.041397 -0.097557 0.097983 -0.123675 0.170859 -0.178574 -0.173775 0.032727 -0.045412 0.076294 -0.136262 -0.004278 -0.008797 0.054115 0.085131 0.140352 0.098580 -0.134190 -0.172774 0.004661 -0.184235 -0.093827 -0.249586 -0.178801 0.097673 -0.053357 -0.102655 0.165949 -0.276311 -0.090292 0.012111 0.057484 -0.107638 0.003784 -0.166379 -0.077931 -0.030082 0.151716 -0.082142 0.003905 -0.112878 -0.026433 0.223787 0.095386 0.092873 -0.069005 -0.039320 -0.109716 -0.078919 -0.062372 -0.147769 0.192759 0.098914 0.083154 0.131088 -0.145274 0.061980 0.085494 0.020633 -0.126215 0.205988 -0.245275 0.124907 -0.049929 -0.148728 0.012420 -0.003241 -0.125805 0.052412 0.012530 -0.113777 0.097680 -0.050987 0.027600 0.107774 -0.060292 0.202495 -0.037060 0.102937 -0.057662 -0.200670 -0.072787 0.117447 -0.185463 -0.037194 -0.015148 -0.111491 -0.000909 -0.021836 -0.142170 0.230580 -0.048652 0.052067 -0.018984 -0.088079 0.183098 0.148983 0.156337 -0.050860 0.026305 -0.027642 0.029376 -0.130055 0.159162 -0.041065 0.133525 -0.115165 -0.091718 -0.159929 -0.018072 -0.095562 0.176560 -0.073514 -0.121394 0.182250 -0.097449 -0.099063 0.006788 -0.127452 0.032730 0.061564 -0.059821 -0.020366 -0.284264 0.020193 0.024109 0.069838 -0.036176 0.011907 0.018400 0.253759 -0.006041 -0.062922 0.100616 -0.052413 -0.028015 0.207391 -0.033107 -0.021687 0.116083 0.035637 -0.223205 -0.098844 -0.107342 0.045511 -0.074063 -0.095667 -0.146555 0.067756 -0.034549 -0.087117 -0.092317 -0.026832 -0.061254 -0.127620 -0.179776 -0.181142 0.064832 0.108905 0.045900 0.051176 0.039708 0.199619 0.037283 -0.128876 -0.085602 -0.149306 0.027330 0.080601 -0.120395 -0.062274 0.101914 -0.190891 -0.064953 0.118743 -0.047368 -0.047386 -0.061978 -0.063179 -0.024547 -0.135673 0.139811 0.025132 0.048495 0.015683 0.135276 0.007044 -0.078401 0.022433 0.049432 -0.096334 0.000103 -0.024294 0.044165 0.053409 0.071850 -0.057776 -0.011908 0.144427 -0.069352 0.020815 0.180255 -0.200683 -0.097839 0.067972 -0.089037 -0.137544 -0.090475 0.130509 -0.059831 -0.142278 -0.026979 -0.048253 -0.050339 -0.101250 0.003253 -0.024699 0.044086 -0.019504 -0.088493 -0.019263 0.159718 -0.061220 0.065468 -0.037138 -0.206323 -0.037627 -0.112341 0.080821 0.077631 -0.065189 0.130091 0.003053 0.034282 0.130439 0.180868 0.084575 0.155412 0.005502 -0.073982 -0.002314 0.260085 -0.007504 0.157234 -0.022798 0.092906 -0.026481 0.059904 -0.059379 0.111883 -0.018987 -0.159111 0.148305 0.110554 0.130292 -0.116386 -0.081533 0.160068 0.120796 0.021218 -0.025486 -0.151343 -0.073948 0.050398 0.031542 -0.017672 -0.022401 -0.004983 -0.244105 0.120223 0.057297 0.054637 0.017684 -0.072230 0.066467 0.161806 0.091209 0.130694 0.185370 0.031097 -0.042012 -0.136013 -0.123544 -0.040535 0.001261 0.168857 0.002128 -0.144920 -0.074762 -0.063781 0.016672 -0.033596 0.155104 -0.031528 0.111969 0.052145 -0.036339 0.120798 0.054459 -0.159493 0.154382 0.042236 -0.036614 -0.050502 -0.091115 -0.002530 0.061577 0.198067 -0.057757 0.118709 0.225217 0.253851 0.160467 -0.132860 -0.059072 -0.166365 0.197313 -0.027036 0.006463 -0.048965 -0.017314 0.012881 -0.037358 0.137291 -0.058465 0.022313 0.157036 -0.036967 -0.067761 -0.103759 -0.030076 0.101551 0.001808 -0.037489 -0.136417 -0.071581 -0.102423 -0.016930 0.087529 0.025106 -0.059272 0.121592 0.130635 -0.073446 -0.092021 0.011299 -0.183191 0.039859 0.058286 0.017636 -0.080435 0.030088 -0.038641 0.023825 0.097358 0.119836
陈炎 0.006883 -0.095167 0.230530 -0.055884 -0.040877 0.074653 -0.033621 -0.061443 0.036408 -0.129558 0.030725 -0.115304 0.145485 0.048907 -0.007617 -0.153828 -0.027658 0.014176 0.047515 0.007633 0.044091 0.113464 0.027457 -0.067077 0.015884 -0.013390 0.037225 0.119697 -0.101866 -0.063912 0.012375 -0.135993 -0.050290 -0.042926 0.104581 0.012957 -0.125557 0.100871 0.050994 0.020166 -0.030656 -0.126245 0.065346 -0.075088 0.036882 -0.082720 0.087331 -0.107481 0.145290 -0.152267 -0.149718 0.027470 -0.042572 0.070373 -0.117559 -0.003726 -0.005403 0.049736 0.075913 0.119857 0.091115 -0.115857 -0.151846 0.006732 -0.163117 -0.079782 -0.214559 -0.159420 0.082139 -0.041744 -0.090042 0.145709 -0.237618 -0.073987 0.014498 0.049983 -0.089534 0.002485 -0.140352 -0.070862 -0.032808 0.129189 -0.069085 0.000141 -0.101374 -0.021898 0.194800 0.078701 0.079439 -0.059855 -0.032997 -0.098537 -0.068274 -0.058223 -0.130052 0.164235 0.083684 0.073856 0.115181 -0.131706 0.055064 0.074934 0.012067 -0.113049 0.177658 -0.210037 0.103660 -0.044588 -0.127216 0.011293 -0.003956 -0.107011 0.044616 0.004462 -0.100089 0.089094 -0.044880 0.020354 0.095468 -0.051839 0.178266 -0.030510 0.082918 -0.047844 -0.173011 -0.061864 0.102928 -0.161953 -0.039087 -0.013714 -0.093236 -0.003056 -0.020916 -0.121852 0.196883 -0.039658 0.043287 -0.022810 -0.077267 0.159000 0.127526 0.136029 -0.040052 0.025907 -0.019325 0.031058 -0.111629 0.135034 -0.037991 0.116443 -0.102213 -0.083642 -0.140691 -0.015632 -0.080768 0.155666 -0.060647 -0.105568 0.161272 -0.082554 -0.087846 0.004093 -0.107342 0.029261 0.051369 -0.049558 -0.017513 -0.244635 0.017490 0.028093 0.059022 -0.031467 0.008634 0.018553 0.219117 -0.004545 -0.052053 0.083234 -0.042966 -0.021913 0.178881 -0.028485 -0.017860 0.098984 0.032718 -0.189934 -0.086102 -0.093272 0.041356 -0.061373 -0.086954 -0.130148 0.055294 -0.028640 -0.075888 -0.076813 -0.019207 -0.049581 -0.111170 -0.158758 -0.155642 0.052305 0.096633 0.038044 0.043864 0.038411 0.173719 0.031996 -0.112727 -0.073691 -0.132014 0.018239 0.069353 -0.106847 -0.056833 0.091540 -0.163140 -0.050514 0.100591 -0.039489 -0.037159 -0.052293 -0.054174 -0.020685 -0.117917 0.121560 0.023262 0.042351 0.010776 0.111956 0.006716 -0.063296 0.021973 0.044481 -0.085881 -0.000677 -0.019118 0.039095 0.046146 0.060288 -0.051290 -0.010735 0.130184 -0.056961 0.018181 0.152290 -0.178179 -0.082934 0.063812 -0.079766 -0.114522 -0.077890 0.112136 -0.055892 -0.123421 -0.020257 -0.040056 -0.049969 -0.085972 0.009129 -0.022695 0.038542 -0.021195 -0.072949 -0.013511 0.139298 -0.053014 0.060889 -0.028517 -0.179498 -0.035478 -0.097269 0.069595 0.064259 -0.054791 0.112140 0.005948 0.029282 0.115181 0.153804 0.069608 0.134135 0.001086 -0.063620 0.001147 0.224382 -0.010720 0.135199 -0.023746 0.079472 -0.020517 0.053913 -0.048926 0.096768 -0.015518 -0.141398 0.129013 0.099076 0.113817 -0.101453 -0.069325 0.140012 0.108157 0.016396 -0.022067 -0.127392 -0.064688 0.043496 0.031090 -0.014449 -0.018486 -0.004722 -0.210467 0.101855 0.048243 0.048390 0.014646 -0.062080 0.056896 0.142917 0.078485 0.109577 0.157580 0.026524 -0.035055 -0.114389 -0.108331 -0.033582 -0.000001 0.143232 0.004856 -0.123616 -0.061651 -0.055608 0.010605 -0.031289 0.137347 -0.029000 0.098233 0.045701 -0.029152 0.104261 0.044868 -0.139099 0.132361 0.035634 -0.035371 -0.045560 -0.081432 -0.000578 0.050381 0.176640 -0.053323 0.099548 0.197422 0.218756 0.140801 -0.110247 -0.050988 -0.142576 0.173764 -0.021228 0.002322 -0.042269 -0.014423 0.010892 -0.035748 0.119643 -0.055142 0.017347 0.140664 -0.031870 -0.055623 -0.089273 -0.026532 0.088140 0.000543 -0.030940 -0.117316 -0.064057 -0.085906 -0.014672 0.075782 0.025513 -0.048449 0.103877 0.112887 -0.062150 -0.076704 0.006227 -0.155631 0.034615 0.051995 0.016972 -0.068341 0.030666 -0.028959 0.019491 0.081847 0.104834
郑红燕 0.008410 -0.080931 0.195692 -0.053548 -0.035921 0.062975 -0.032872 -0.053969 0.029212 -0.111079 0.024450 -0.101606 0.124568 0.041188 -0.010076 -0.134545 -0.020540 0.014188 0.039005 0.005146 0.041376 0.098328 0.025031 -0.055288 0.014900 -0.015862 0.031078 0.103209 -0.089131 -0.050265 0.011414 -0.113397 -0.042863 -0.035847 0.088642 0.010339 -0.109326 0.086093 0.043849 0.012447 -0.026519 -0.110497 0.056998 -0.064409 0.034154 -0.071864 0.075802 -0.091440 0.124575 -0.131215 -0.128271 0.025406 -0.037205 0.057541 -0.100177 -0.001258 -0.004378 0.040077 0.062808 0.100870 0.076594 -0.101770 -0.130159 0.003445 -0.140254 -0.068850 -0.185625 -0.137240 0.070025 -0.035846 -0.077312 0.123388 -0.203189 -0.062815 0.009833 0.040758 -0.081059 0.003210 -0.118277 -0.060725 -0.026152 0.106225 -0.059116 -0.002181 -0.089040 -0.018524 0.166305 0.070959 0.068084 -0.053998 -0.027822 -0.082765 -0.062880 -0.044949 -0.110209 0.140257 0.071314 0.064987 0.100381 -0.110174 0.047067 0.063686 0.013901 -0.096279 0.153555 -0.178090 0.092327 -0.034797 -0.109417 0.007440 -0.003118 -0.094246 0.042411 0.006576 -0.088379 0.069616 -0.038916 0.021455 0.080041 -0.047350 0.151541 -0.026235 0.074083 -0.043757 -0.147083 -0.051910 0.090158 -0.137735 -0.027904 -0.008869 -0.081182 -0.002487 -0.016549 -0.103920 0.169012 -0.036909 0.038346 -0.018187 -0.063753 0.137513 0.109775 0.117210 -0.033616 0.020551 -0.020982 0.023724 -0.094634 0.116835 -0.032905 0.100002 -0.089311 -0.069788 -0.115220 -0.009213 -0.072804 0.133296 -0.053839 -0.092843 0.136714 -0.070840 -0.071978 0.007204 -0.091790 0.026357 0.045848 -0.045684 -0.015441 -0.210817 0.015231 0.019462 0.047919 -0.023176 0.009615 0.012810 0.186949 -0.005252 -0.044168 0.072672 -0.037220 -0.020679 0.154251 -0.024281 -0.014134 0.082073 0.024201 -0.163412 -0.076399 -0.081225 0.034416 -0.054873 -0.074311 -0.111747 0.051278 -0.023594 -0.061248 -0.067069 -0.019228 -0.046254 -0.093680 -0.131659 -0.131980 0.045240 0.082032 0.031713 0.032894 0.028622 0.149557 0.027816 -0.097329 -0.060645 -0.111903 0.020225 0.057961 -0.091877 -0.047370 0.076143 -0.140085 -0.045494 0.088611 -0.031498 -0.035906 -0.046846 -0.048595 -0.019412 -0.102350 0.105513 0.017906 0.038722 0.010674 0.097695 0.003644 -0.058512 0.019841 0.040632 -0.073958 0.000085 -0.012539 0.035281 0.037636 0.052234 -0.041765 -0.005191 0.110460 -0.047135 0.015498 0.132205 -0.150341 -0.071675 0.052585 -0.067428 -0.098568 -0.067751 0.095410 -0.045384 -0.105552 -0.018386 -0.035096 -0.039882 -0.074548 0.003625 -0.015982 0.032772 -0.015255 -0.061993 -0.010713 0.118114 -0.041659 0.053720 -0.027212 -0.149434 -0.026740 -0.085049 0.059710 0.056825 -0.048216 0.096763 0.005497 0.027755 0.098139 0.130098 0.059505 0.110405 0.001276 -0.053229 -0.002136 0.190077 -0.007426 0.117697 -0.020214 0.068046 -0.016519 0.049532 -0.040514 0.078936 -0.015857 -0.121875 0.109519 0.085778 0.096716 -0.086279 -0.057282 0.119442 0.091572 0.014386 -0.020531 -0.110476 -0.057717 0.033957 0.026948 -0.011051 -0.017115 -0.008239 -0.178584 0.087789 0.042820 0.039924 0.013449 -0.053139 0.045033 0.123305 0.066456 0.093099 0.134306 0.025182 -0.027898 -0.098731 -0.090765 -0.030870 0.002463 0.124924 0.003832 -0.106963 -0.056259 -0.049854 0.010093 -0.023775 0.116723 -0.020414 0.085125 0.037392 -0.028061 0.092206 0.039861 -0.117993 0.110271 0.030808 -0.028791 -0.035577 -0.067980 -0.001088 0.046010 0.147958 -0.045173 0.085581 0.164471 0.185279 0.118741 -0.097103 -0.043437 -0.124355 0.145187 -0.020614 0.003723 -0.033996 -0.010489 0.010248 -0.029102 0.100750 -0.046525 0.013867 0.119053 -0.026289 -0.048963 -0.073749 -0.023034 0.074323 -0.002351 -0.023000 -0.099814 -0.054450 -0.073340 -0.017204 0.068126 0.017599 -0.041406 0.088900 0.097633 -0.050167 -0.063325 0.006075 -0.132157 0.030566 0.043987 0.017053 -0.058275 0.024174 -0.025900 0.019175 0.071872 0.089939
倪海燕 0.007299 -0.076913 0.196951 -0.050797 -0.035680 0.064373 -0.031350 -0.055043 0.029071 -0.107249 0.022640 -0.101963 0.125374 0.040366 -0.009783 -0.133585 -0.021275 0.018310 0.034513 0.005559 0.038919 0.099413 0.021233 -0.055265 0.015146 -0.015108 0.031425 0.103307 -0.089135 -0.053948 0.009317 -0.115248 -0.043724 -0.035486 0.090679 0.012240 -0.111199 0.089792 0.042398 0.013921 -0.025177 -0.106303 0.055798 -0.064533 0.032524 -0.068565 0.074024 -0.092542 0.125260 -0.132715 -0.130196 0.021992 -0.035602 0.058604 -0.100098 0.001181 -0.001998 0.042074 0.064821 0.104010 0.078259 -0.101022 -0.129493 0.003862 -0.143820 -0.070463 -0.183493 -0.136249 0.070721 -0.034337 -0.078431 0.121083 -0.201816 -0.060948 0.012221 0.041972 -0.077428 -0.000439 -0.120307 -0.064175 -0.029010 0.108284 -0.057611 -0.004965 -0.089696 -0.015667 0.168140 0.072711 0.065186 -0.050868 -0.028160 -0.086101 -0.062565 -0.048361 -0.112944 0.140768 0.070956 0.064611 0.098245 -0.112519 0.045603 0.062923 0.010523 -0.100139 0.155348 -0.178059 0.088884 -0.036487 -0.112301 0.009981 -0.002856 -0.095399 0.040945 0.003053 -0.086650 0.071064 -0.039914 0.020093 0.080071 -0.048300 0.153705 -0.027597 0.073058 -0.040699 -0.149940 -0.052610 0.092128 -0.139644 -0.028654 -0.010322 -0.082188 -0.002312 -0.015624 -0.104512 0.169139 -0.034729 0.038775 -0.020009 -0.063054 0.136834 0.108521 0.117801 -0.030799 0.022836 -0.020343 0.027380 -0.096115 0.113435 -0.035795 0.099449 -0.086511 -0.069491 -0.118905 -0.008622 -0.072834 0.137366 -0.050436 -0.092918 0.134918 -0.071556 -0.072897 0.010114 -0.092554 0.028461 0.043127 -0.045827 -0.016161 -0.207445 0.017647 0.022788 0.046677 -0.025836 0.007460 0.011803 0.189085 -0.003734 -0.047761 0.071119 -0.036147 -0.020444 0.153964 -0.024792 -0.016705 0.084341 0.026201 -0.159967 -0.075302 -0.081373 0.035108 -0.053280 -0.075668 -0.115210 0.052732 -0.024326 -0.063902 -0.066798 -0.017186 -0.043808 -0.093737 -0.132155 -0.133207 0.047238 0.080673 0.035318 0.031511 0.030641 0.147338 0.030658 -0.100023 -0.060838 -0.114599 0.021688 0.056096 -0.093346 -0.047302 0.075854 -0.143153 -0.042495 0.088615 -0.032328 -0.033024 -0.047102 -0.047198 -0.022455 -0.101171 0.104623 0.017117 0.035026 0.007223 0.095522 0.001190 -0.057279 0.019523 0.037488 -0.072347 -0.001913 -0.011390 0.035527 0.036441 0.053565 -0.043542 -0.003619 0.111648 -0.048775 0.013254 0.132643 -0.154231 -0.072171 0.056699 -0.069785 -0.096458 -0.070067 0.095158 -0.043557 -0.104214 -0.018499 -0.034460 -0.041877 -0.075020 0.006073 -0.018684 0.032100 -0.015694 -0.059751 -0.010228 0.115476 -0.043528 0.056973 -0.027623 -0.150999 -0.027076 -0.086000 0.057553 0.058346 -0.051400 0.099137 0.007269 0.027515 0.100221 0.127885 0.061205 0.114500 -0.001458 -0.051404 0.001509 0.191637 -0.010707 0.117337 -0.021531 0.071893 -0.015158 0.053472 -0.041345 0.079252 -0.014281 -0.124860 0.112570 0.087670 0.098715 -0.089643 -0.059060 0.120998 0.091676 0.009990 -0.019000 -0.108300 -0.056924 0.033939 0.027927 -0.011913 -0.016274 -0.004813 -0.183574 0.087104 0.048030 0.042502 0.015962 -0.051334 0.045826 0.126417 0.068038 0.094072 0.136230 0.025300 -0.030851 -0.099155 -0.093575 -0.033626 0.002392 0.123645 0.005735 -0.103202 -0.053820 -0.051356 0.009086 -0.025012 0.119757 -0.021349 0.090301 0.037801 -0.028554 0.091153 0.036898 -0.118079 0.114005 0.031703 -0.031020 -0.034331 -0.066855 0.002503 0.048155 0.149173 -0.047145 0.082848 0.165954 0.187032 0.118053 -0.092988 -0.043042 -0.126165 0.146960 -0.021137 0.004537 -0.033584 -0.010397 0.010571 -0.029697 0.100615 -0.050887 0.014514 0.121143 -0.028493 -0.052482 -0.073593 -0.020737 0.070217 0.001640 -0.021600 -0.102994 -0.055304 -0.074731 -0.015442 0.065361 0.018801 -0.042230 0.090030 0.100349 -0.053984 -0.064426 0.005939 -0.132076 0.032068 0.046913 0.019171 -0.060277 0.025314 -0.022985 0.017803 0.068687 0.092183
归珠 0.006821 -0.086183 0.213267 -0.055601 -0.036654 0.068734 -0.033521 -0.059103 0.031681 -0.120791 0.026591 -0.107754 0.135517 0.044726 -0.008840 -0.143934 -0.025428 0.016303 0.043291 0.007160 0.043472 0.105196 0.025370 -0.061114 0.017115 -0.016022 0.033752 0.111958 -0.094522 -0.056698 0.013465 -0.122816 -0.045750 -0.040728 0.095645 0.013201 -0.118014 0.094753 0.047031 0.015588 -0.025925 -0.118078 0.060866 -0.069462 0.034076 -0.076833 0.082038 -0.098829 0.135292 -0.142288 -0.139969 0.025682 -0.040175 0.063013 -0.106847 -0.002256 -0.005165 0.045213 0.070539 0.112469 0.084954 -0.109905 -0.140628 0.005362 -0.150993 -0.074896 -0.198633 -0.146858 0.077150 -0.037321 -0.083279 0.133879 -0.220252 -0.066749 0.011332 0.043774 -0.085827 0.001171 -0.128693 -0.065022 -0.028750 0.116990 -0.063036 -0.002503 -0.095978 -0.018682 0.181593 0.075245 0.072330 -0.057752 -0.031097 -0.088372 -0.065222 -0.051692 -0.119666 0.153598 0.078535 0.069081 0.106261 -0.120403 0.050395 0.069602 0.012036 -0.104210 0.166567 -0.194402 0.097520 -0.039267 -0.119884 0.007904 -0.003566 -0.101165 0.042904 0.004030 -0.094755 0.079917 -0.042403 0.020509 0.087050 -0.050721 0.163959 -0.029748 0.080163 -0.046096 -0.159412 -0.056390 0.096599 -0.151373 -0.032223 -0.010663 -0.087364 -0.002986 -0.018405 -0.111606 0.183801 -0.037442 0.040358 -0.021181 -0.070594 0.147946 0.117077 0.126170 -0.037348 0.022486 -0.020474 0.025934 -0.102644 0.123103 -0.036662 0.108049 -0.096215 -0.076056 -0.129042 -0.010031 -0.076394 0.145431 -0.058927 -0.098761 0.149861 -0.076787 -0.079044 0.004673 -0.099831 0.028670 0.048620 -0.048239 -0.015912 -0.227911 0.017543 0.024258 0.052578 -0.027975 0.007608 0.013740 0.204417 -0.004913 -0.048124 0.078288 -0.039312 -0.021627 0.168174 -0.025708 -0.016872 0.090044 0.029968 -0.176911 -0.081592 -0.087082 0.037348 -0.058378 -0.079108 -0.120895 0.053423 -0.026224 -0.068065 -0.072400 -0.019782 -0.047681 -0.100262 -0.144394 -0.143559 0.049011 0.088657 0.033934 0.038201 0.032485 0.158799 0.030859 -0.105131 -0.067356 -0.120063 0.018926 0.062687 -0.098590 -0.051114 0.082025 -0.150900 -0.049126 0.092957 -0.036173 -0.036550 -0.048867 -0.053506 -0.019597 -0.109963 0.112520 0.020663 0.041994 0.009428 0.104661 0.004509 -0.060452 0.021164 0.042005 -0.077814 0.000511 -0.016899 0.036878 0.040677 0.055243 -0.047862 -0.005112 0.118502 -0.051916 0.017074 0.141814 -0.165202 -0.077909 0.058138 -0.074155 -0.106121 -0.073756 0.104831 -0.048924 -0.113044 -0.019784 -0.036620 -0.044625 -0.078403 0.005793 -0.020522 0.034045 -0.017654 -0.066630 -0.012763 0.128146 -0.046841 0.058738 -0.028826 -0.163051 -0.030522 -0.091439 0.063729 0.061737 -0.052657 0.104966 0.007069 0.029205 0.105136 0.139987 0.064204 0.121522 0.001438 -0.057417 -0.001450 0.208730 -0.009131 0.125873 -0.022142 0.074327 -0.019651 0.052411 -0.044682 0.088928 -0.015185 -0.132033 0.119716 0.092377 0.105022 -0.094046 -0.063707 0.129927 0.097588 0.015445 -0.023576 -0.119829 -0.060941 0.038443 0.030083 -0.012492 -0.017010 -0.007447 -0.194732 0.092638 0.045624 0.043515 0.014626 -0.057170 0.050959 0.132596 0.073102 0.101685 0.147300 0.025210 -0.032896 -0.105773 -0.100232 -0.032238 0.001950 0.135024 0.004633 -0.116231 -0.057040 -0.054048 0.010359 -0.028862 0.127347 -0.025295 0.094233 0.041681 -0.029146 0.098853 0.043110 -0.128998 0.121887 0.032696 -0.030698 -0.038933 -0.074399 0.001153 0.048462 0.160608 -0.050935 0.093087 0.180652 0.201360 0.129345 -0.104684 -0.047744 -0.134497 0.160517 -0.022000 0.004332 -0.038602 -0.012338 0.011093 -0.030478 0.109489 -0.049906 0.014692 0.128706 -0.029342 -0.052343 -0.081787 -0.024194 0.079561 -0.002057 -0.027079 -0.109477 -0.060275 -0.079733 -0.017312 0.072303 0.022254 -0.044711 0.097977 0.106140 -0.056965 -0.071036 0.007168 -0.143611 0.033271 0.046774 0.018338 -0.062326 0.027255 -0.027343 0.020508 0.078036 0.098807
朱丹婴 0.006425 -0.082764 0.206038 -0.052746 -0.035974 0.065967 -0.033266 -0.055870 0.030190 -0.114726 0.024926 -0.106188 0.130177 0.042686 -0.008039 -0.140107 -0.023694 0.014343 0.041614 0.005240 0.041819 0.102931 0.025089 -0.057709 0.014407 -0.016667 0.032603 0.106880 -0.090708 -0.053804 0.011495 -0.118599 -0.043822 -0.038475 0.094611 0.013025 -0.114536 0.091719 0.045290 0.013805 -0.025847 -0.112940 0.058581 -0.068435 0.032596 -0.074296 0.076945 -0.097097 0.129718 -0.135132 -0.133505 0.025128 -0.038300 0.061240 -0.103356 -0.002498 -0.004033 0.044506 0.067718 0.108526 0.082105 -0.105604 -0.136227 0.005082 -0.147038 -0.071555 -0.193435 -0.143496 0.072225 -0.035535 -0.081924 0.127052 -0.211700 -0.064391 0.012667 0.042528 -0.082493 0.001279 -0.123939 -0.064021 -0.028426 0.114225 -0.061837 -0.003224 -0.092188 -0.018610 0.174892 0.073350 0.071891 -0.054842 -0.028648 -0.086767 -0.063735 -0.048585 -0.116568 0.145942 0.073342 0.065550 0.103578 -0.116699 0.048463 0.066353 0.011638 -0.102320 0.160104 -0.186561 0.093745 -0.036045 -0.113940 0.008399 -0.003395 -0.098685 0.043540 0.004782 -0.091667 0.077161 -0.041698 0.022619 0.084587 -0.049077 0.158519 -0.027319 0.077703 -0.043225 -0.155765 -0.055486 0.095031 -0.143623 -0.030012 -0.009871 -0.084105 -0.000664 -0.017890 -0.109847 0.177393 -0.036396 0.041104 -0.020177 -0.068144 0.143302 0.113324 0.121224 -0.036032 0.022931 -0.019246 0.026905 -0.098057 0.118995 -0.034376 0.103791 -0.090806 -0.073556 -0.122381 -0.009228 -0.074560 0.139755 -0.054869 -0.095870 0.141782 -0.073063 -0.076219 0.008102 -0.094881 0.027836 0.047074 -0.047138 -0.016950 -0.218585 0.017915 0.022516 0.050796 -0.026809 0.008435 0.014137 0.194933 -0.004417 -0.047422 0.074146 -0.038509 -0.021128 0.161663 -0.025242 -0.016090 0.089005 0.028981 -0.168851 -0.078114 -0.083894 0.035538 -0.056301 -0.076028 -0.119211 0.052295 -0.026454 -0.066213 -0.070447 -0.018353 -0.046972 -0.096828 -0.139057 -0.137721 0.046746 0.084828 0.035403 0.037317 0.033076 0.155259 0.029667 -0.102461 -0.062957 -0.116698 0.019884 0.060167 -0.095522 -0.050885 0.079687 -0.148356 -0.044919 0.092013 -0.032755 -0.034881 -0.047958 -0.051159 -0.020575 -0.107494 0.109218 0.019936 0.039621 0.010301 0.101395 0.004102 -0.060398 0.022041 0.040779 -0.075748 0.000173 -0.013731 0.034996 0.038288 0.053168 -0.044195 -0.005381 0.115912 -0.048595 0.017113 0.138232 -0.159330 -0.073281 0.058207 -0.071420 -0.103492 -0.072411 0.098976 -0.047814 -0.110618 -0.018439 -0.035541 -0.041406 -0.077720 0.006685 -0.017593 0.032416 -0.017361 -0.065675 -0.011599 0.123235 -0.044400 0.056140 -0.027676 -0.156639 -0.029617 -0.088371 0.062169 0.059369 -0.051430 0.102615 0.006841 0.029431 0.102411 0.136517 0.061652 0.118726 0.000484 -0.056348 -0.000115 0.199321 -0.009707 0.121219 -0.020541 0.071869 -0.019741 0.052317 -0.043646 0.084484 -0.016868 -0.128655 0.114294 0.089401 0.103312 -0.092079 -0.060777 0.125250 0.096049 0.012020 -0.020708 -0.113797 -0.059019 0.037148 0.029608 -0.011744 -0.018243 -0.006729 -0.190250 0.089142 0.046328 0.041954 0.014678 -0.054161 0.049368 0.129485 0.071981 0.097465 0.141502 0.024143 -0.030784 -0.101015 -0.096931 -0.032844 0.001513 0.129157 0.002997 -0.111216 -0.056461 -0.049947 0.010913 -0.027327 0.122614 -0.023185 0.091530 0.038306 -0.029299 0.094942 0.041723 -0.125357 0.116806 0.032786 -0.032427 -0.037125 -0.070488 -0.000129 0.048298 0.156406 -0.048656 0.087862 0.174732 0.193927 0.124654 -0.099958 -0.046651 -0.130345 0.154314 -0.019088 0.005198 -0.036123 -0.011065 0.012186 -0.030706 0.105604 -0.050340 0.014418 0.124880 -0.027193 -0.050882 -0.077904 -0.022513 0.076789 -0.000731 -0.023630 -0.105152 -0.056416 -0.075993 -0.016844 0.070377 0.020189 -0.042522 0.093837 0.102010 -0.053742 -0.065969 0.007373 -0.139599 0.033194 0.045986 0.016375 -0.060776 0.026176 -0.026156 0.018406 0.073943 0.094717
王文君 0.007387 -0.094175 0.225922 -0.057023 -0.041942 0.072909 -0.035696 -0.061081 0.036498 -0.127308 0.029209 -0.113740 0.143779 0.046240 -0.008052 -0.152691 -0.027310 0.016080 0.048944 0.008062 0.044845 0.110757 0.026234 -0.066070 0.016820 -0.016083 0.036106 0.118560 -0.099972 -0.062346 0.013680 -0.134535 -0.050198 -0.043394 0.104101 0.012655 -0.124367 0.097345 0.049162 0.018739 -0.029672 -0.124822 0.066052 -0.074613 0.035638 -0.080876 0.087578 -0.105542 0.143460 -0.149515 -0.148413 0.029111 -0.041460 0.069739 -0.116105 -0.004675 -0.004370 0.049407 0.075610 0.120173 0.090251 -0.115821 -0.151295 0.004755 -0.160079 -0.078599 -0.214083 -0.157274 0.081288 -0.041516 -0.090617 0.142463 -0.236316 -0.073377 0.013723 0.049023 -0.090434 0.002120 -0.139238 -0.073075 -0.033435 0.127032 -0.068930 0.000011 -0.102112 -0.021343 0.193712 0.078968 0.078920 -0.061406 -0.034095 -0.096932 -0.068772 -0.056395 -0.126121 0.163166 0.082230 0.075553 0.113870 -0.129069 0.055093 0.074684 0.012633 -0.111162 0.177669 -0.205799 0.102746 -0.042268 -0.125229 0.009252 -0.005458 -0.107570 0.045530 0.005401 -0.100945 0.087360 -0.046591 0.021824 0.092471 -0.053026 0.174614 -0.032421 0.083532 -0.046847 -0.172457 -0.061414 0.102529 -0.162122 -0.036990 -0.011518 -0.093165 -0.004457 -0.018860 -0.119096 0.197211 -0.039046 0.043284 -0.021468 -0.075983 0.156857 0.126302 0.134169 -0.041551 0.026180 -0.019703 0.029190 -0.107766 0.133897 -0.038927 0.112969 -0.100755 -0.083314 -0.138881 -0.011271 -0.081594 0.156254 -0.060817 -0.106904 0.162050 -0.080631 -0.087692 0.003509 -0.107691 0.031005 0.052569 -0.049484 -0.018245 -0.243862 0.016665 0.027166 0.058544 -0.030591 0.008190 0.016682 0.218126 -0.006609 -0.050969 0.083417 -0.042897 -0.023161 0.179663 -0.027050 -0.015372 0.098857 0.032433 -0.190419 -0.087734 -0.093054 0.040561 -0.062555 -0.084130 -0.128776 0.055355 -0.028624 -0.073510 -0.077484 -0.019327 -0.050796 -0.108613 -0.154527 -0.152734 0.050605 0.097453 0.037061 0.042153 0.037171 0.171311 0.031860 -0.113978 -0.072412 -0.130379 0.019240 0.068063 -0.105234 -0.056348 0.090022 -0.162070 -0.050643 0.100116 -0.037896 -0.037797 -0.052032 -0.055428 -0.020001 -0.118533 0.120133 0.022960 0.044292 0.011162 0.112151 0.007883 -0.062643 0.022570 0.045019 -0.083845 0.000594 -0.019600 0.038470 0.042629 0.057103 -0.050245 -0.008088 0.126404 -0.053377 0.019174 0.151154 -0.176896 -0.081834 0.063440 -0.077539 -0.113034 -0.078232 0.110358 -0.055607 -0.119728 -0.020688 -0.040277 -0.046953 -0.084105 0.007667 -0.020844 0.037997 -0.019417 -0.074123 -0.014968 0.138424 -0.051509 0.061370 -0.030289 -0.177055 -0.034243 -0.097036 0.070320 0.064693 -0.053934 0.113397 0.006408 0.029394 0.114011 0.153340 0.067738 0.132647 -0.000047 -0.060493 0.000925 0.224080 -0.007882 0.133923 -0.025279 0.078160 -0.021505 0.055158 -0.048231 0.094800 -0.015989 -0.139700 0.126381 0.099863 0.114388 -0.098228 -0.067299 0.139564 0.106096 0.015645 -0.023772 -0.126896 -0.064905 0.042338 0.031686 -0.013064 -0.020052 -0.007984 -0.210630 0.098167 0.049431 0.048278 0.015103 -0.060828 0.056490 0.139356 0.078200 0.110485 0.156814 0.026053 -0.033803 -0.113059 -0.105201 -0.034397 0.001863 0.141897 0.003883 -0.122640 -0.060560 -0.054777 0.012969 -0.029680 0.134365 -0.028661 0.098588 0.042780 -0.030400 0.104263 0.043525 -0.140086 0.131317 0.035625 -0.034186 -0.044003 -0.080268 0.001846 0.050092 0.175644 -0.052681 0.098778 0.194340 0.216016 0.138654 -0.112342 -0.050535 -0.143430 0.171644 -0.022966 0.003868 -0.039213 -0.011479 0.011431 -0.034494 0.120899 -0.055582 0.017248 0.139586 -0.031892 -0.056491 -0.086892 -0.027590 0.086123 -0.001959 -0.029515 -0.116618 -0.064227 -0.084736 -0.015483 0.076658 0.024953 -0.047452 0.103191 0.112640 -0.060898 -0.074773 0.008285 -0.154457 0.034493 0.049062 0.017639 -0.065826 0.031163 -0.026910 0.019404 0.079998 0.104168
